2129 128
64 0.09207822 -0.013357975 0.13885371 0.121048324 -0.05116384 0.002241924 0.027746184 0.054209307 -0.003212193 -0.005336507 0.1281288 -0.041948557 0.1536527 -0.04065896 0.012768575 0.21472432 -0.059795626 -0.1392614 -0.047424067 0.10120351 0.05601491 0.07189514 -0.06535478 0.0011520921 -0.016379911 -0.076132156 -0.0005549897 0.112892844 0.027147306 0.16331625 -0.16263159 0.079523936 0.073997386 -0.004526978 -0.0310536 -0.040767957 0.08521018 -0.005359697 0.092405185 -0.026122779 0.060309134 0.0035807213 -0.019720165 0.013403519 0.0045290184 0.04690306 0.0028441057 -0.092602216 0.078256026 -0.05166166 0.1483648 0.01293239 -0.12076876 -0.005602626 -0.15664285 0.018910127 0.08867918 0.006584689 -0.05891756 0.10199067 -0.042956516 0.22884582 -0.031161796 -0.06868925 0.16917911 -0.14294742 -0.030009309 0.027008561 -0.062314082 -0.13339038 0.01713821 0.15894648 -0.16898634 0.09775981 0.12042962 -0.10962962 0.014086636 0.023981279 0.022598762 0.032277845 -0.008597174 -0.014380756 0.0184388 0.07903436 0.013540293 0.14830492 -0.12780744 -0.0018542228 0.040673167 -0.1325205 -0.10998027 -0.0730376 -0.049275994 0.00043828986 0.024455091 0.045078237 0.12024646 -0.15730986 0.067111574 -0.03692649 -0.051866665 0.06852921 -7.5894735e-05 0.024920484 0.078832544 -0.010339911 0.02118471 0.15727846 -0.031901658 0.08477771 0.15158285 0.035853196 0.11022276 0.14552681 -0.001098086 0.006420208 0.11698591 -0.03900483 -0.08809476 -0.04897334 -0.11739556 -0.08172406 0.041317936 0.048464857 -0.06291513 0.09015679 0.021707075 -0.070199125
63 0.05595486 0.034285333 0.15772013 0.14201282 -0.047427896 0.016520202 0.023253974 0.055526797 0.0022642936 -0.019599095 0.113591455 -0.0024478303 0.14701429 -0.0600233 0.03681142 0.17661962 -0.06053716 -0.16281259 -0.051285543 0.09932504 0.043873493 0.098903395 -0.03393541 0.03373028 0.024272313 -0.12543829 -0.0034333654 0.05552498 0.06916605 0.22780238 -0.1537318 0.03483291 0.044584554 -0.010210051 -0.053410534 -0.049597338 0.03043836 0.010883997 0.12908635 -0.03604537 0.092885666 0.013443049 0.013102304 0.011385318 -0.017724123 0.042447377 -0.005192767 -0.0974496 0.08296058 -0.041045375 0.1387006 -0.048907008 -0.13978653 0.018535018 -0.11495504 0.00821796 0.06849448 -0.033829458 -0.03942481 0.07720626 -0.044973 0.24683246 -0.00668966 -0.06978401 0.16550785 -0.16583583 -0.1014122 0.043283008 -0.05036114 -0.0849542 -0.0037885793 0.17218487 -0.1570825 0.09304338 0.10247079 -0.10753148 0.021753097 0.05529497 0.03419265 0.05153869 0.0067138285 -0.053398974 0.022130357 0.10704814 -0.011232721 0.14847934 -0.11797959 -0.0012810043 0.026586993 -0.103123635 -0.06749161 -0.08980482 -0.022033075 -0.008259357 0.03843656 0.05324741 0.12348885 -0.17415434 0.0378843 -0.06828958 -0.017695136 0.036872413 -0.0011195596 0.035528336 0.09074389 -0.018430145 0.029011527 0.13760863 -0.019220922 0.08698477 0.15758082 0.0017841778 0.05788719 0.179015 -0.01448218 0.036880005 0.11541584 -0.046659768 -0.09576021 -0.08817012 -0.07762891 -0.043861296 -0.0031869474 0.01965467 -0.031779613 0.0686023 -0.035528056 -0.03754057
65 0.14634763 -0.008614242 0.058571246 0.16703369 -0.060144097 0.11430323 -0.0007528183 0.015606075 0.027896125 0.011769715 0.076742806 0.0008788937 0.15948565 0.054475717 -0.05929347 0.25171208 -0.06545734 -0.07390375 -0.15065534 0.1913081 0.10549815 0.12777828 0.026733229 -0.0039728126 0.022701511 -0.11112379 0.020231817 0.12635604 0.041682035 0.10123564 -0.051676687 0.11309222 0.09471924 0.07134541 -0.060777668 -0.107489005 0.08535972 -0.07767179 0.27967662 -0.041697193 0.05509959 -0.15652232 0.052269153 -0.097901054 -0.013033474 0.04548712 -0.02863107 -0.06557094 0.019806463 0.11053101 0.035473887 -0.030784946 -0.061768025 0.069191165 -0.20027591 0.110340096 0.2778278 0.10099706 -0.077385984 0.20429005 -0.01041398 0.1071371 0.13184962 0.06254284 0.061969373 -0.097647116 -0.033190284 0.08431051 -0.07622175 -0.25008148 0.15829575 0.08928461 -0.10601879 0.15533884 0.18989989 -0.13207535 0.0377643 -0.06792708 -0.018625608 0.18864293 0.14943767 -0.10663745 0.09623362 0.048705917 0.19658974 0.11541002 -0.049618274 -0.16198853 0.010714133 -0.16011469 -0.14953214 -0.038561847 -0.0014108629 0.006820269 -0.01287658 0.029902486 0.021911884 -0.14760207 -0.055874046 -0.107669555 0.04606236 0.0047727893 0.012693861 -0.08028516 0.06007511 -0.0211731 -0.053282738 0.16470137 0.07179801 0.11058108 0.045092035 0.12690698 0.034042995 0.23361602 -0.023401082 -0.048551474 0.21400772 -0.020344207 -0.04559675 -0.047488872 0.009717576 -0.1377616 -0.08665926 0.21371578 -0.021287799 0.11133898 0.015925076 -0.112120934
66 -0.22590068 0.22447652 0.31979173 0.10110048 -0.13110454 -0.18199547 0.058489457 0.03313617 -0.16494575 0.0004989236 0.16686004 -0.19471928 0.29156783 -0.23141119 0.110866 -0.0054625017 -0.072735935 -0.018565686 -0.008677822 -0.016947044 -0.026039068 0.13374504 -0.0014012897 -0.017579023 -0.095701404 -0.06289381 -0.044110727 -0.0651831 -0.027332433 0.10258441 -0.3439128 -0.045281626 0.24912398 -0.22876285 -0.016952503 0.050401907 0.10249938 -0.061894376 0.03819682 -0.065352306 0.10484379 0.18901892 0.13134377 0.09764009 -0.14103627 0.32193813 -0.0037548973 -0.023084734 0.13583857 -0.0565421 0.30458063 0.057893988 -0.023140395 -0.18911925 -0.022789828 -0.051585883 -0.152834 -0.037639733 -0.068691835 0.0522119 -0.072158076 0.3352488 -0.12798995 -0.06305058 0.21898055 -0.37509933 0.032527074 -0.004498951 0.16792665 0.22453913 -0.06963586 0.31308722 -0.30614254 0.14429343 0.042409003 -0.18481646 -0.01294932 0.14553702 0.15747657 -0.24332272 -0.111565016 0.27161258 -0.096968554 0.10153201 -0.20333436 0.10605405 -0.04529921 0.16266684 0.029062364 0.08341812 0.11860031 0.034181695 0.050781228 -0.18145473 0.3077982 -0.017709652 0.173229 -0.27236483 0.3133998 0.0787846 -0.25826287 -0.050150674 0.0048468993 -0.010331063 0.029529905 0.0068966504 0.2342473 -0.02216686 -0.21884185 0.07204099 0.083040476 -0.12000186 0.2331441 -0.05687309 -0.04054265 0.20302264 -0.29988703 0.10689361 0.060241576 -0.026170487 -0.24765801 -0.12341615 0.29724872 -0.085291445 -0.18545687 -0.03907621 -0.036553945 -0.116791226
70 -0.043228623 0.17649993 0.25606784 0.14097771 0.06441739 -0.3300096 -0.04804645 0.20603098 -0.23709245 0.13202603 0.0866171 0.46886095 -0.0074943956 -0.1478502 0.15758492 0.17584904 -0.3707323 0.07479693 0.0593817 0.28089973 0.12493921 -0.24167052 0.11990335 0.1259773 0.18944709 0.023834543 0.04143436 0.06270286 0.3267477 0.0010389272 -0.115242064 -0.04830642 -0.041999053 -0.4374942 0.057863593 -0.041022573 0.23000145 0.4001231 0.042276673 0.17080684 0.17156558 0.07840783 0.16241738 -0.111967795 0.23806141 0.15263385 -0.10754221 0.0656748 0.16663367 -0.026704093 0.068110324 -0.17752732 0.10130944 0.23906928 0.17040266 0.27407515 0.08335766 -0.34214595 -0.049188524 0.07118597 -0.13143599 -0.2723841 0.030613964 -0.16886231 0.10277649 0.09620077 0.022590963 0.1778676 -0.047137894 -0.17629431 0.0987183 0.033517014 -0.117960475 -0.17274363 -0.06250139 -0.026861003 -0.031176358 -0.055856436 0.24154441 0.1836315 -0.0030106618 -0.19383174 -0.11050886 0.04580154 0.25368986 0.19935957 -0.007897545 -0.37691727 0.03376109 0.30600354 -0.24142958 -0.119078234 0.06510409 -0.05798767 -0.22628865 -0.037078068 0.15236032 -0.058178127 0.14972396 0.02447592 -0.25210628 0.037916545 0.23998827 -0.1962396 0.08987198 0.23371994 0.34668657 -0.16714479 -0.1407412 -0.080229536 0.18207416 -0.09952335 0.055427443 0.15764716 0.08102184 0.21617134 0.4809154 0.2559478 0.1332538 0.010442926 -0.3505241 -0.14255771 -0.034886207 0.019928196 -0.18111593 0.13531087 -0.03612636 -0.34211612
67 0.11123513 -0.08723709 0.28293332 0.2642378 -0.061216272 -0.36133268 -0.055055283 0.03452142 -0.3277164 0.2736352 0.09025115 0.072647914 -0.003954908 -0.14966631 -0.46354368 0.16403888 -0.051963072 -0.06617038 -0.28197426 0.21794236 0.3224265 0.18171874 -0.04655183 -0.044656023 -0.23855379 -0.01757393 -0.4810375 -0.1671552 -0.16789599 0.04055597 0.018061243 0.16087916 -0.08309692 -0.093152605 -0.056920096 -0.019122172 0.106548145 -0.1766696 0.035847716 0.2448532 -0.08850985 -0.10748152 -0.30026186 -0.1614582 0.25556713 0.07059605 -0.052102786 0.009597564 0.028986774 0.096670225 -0.14071661 0.16693941 -0.25608912 0.3513966 0.044453625 -0.3621825 -0.10843051 0.0586687 0.00046979694 -0.029289244 -0.17689945 0.10554498 -0.09246764 -0.0481279 0.33282247 -0.13151588 -0.0690709 0.040124178 -0.19639778 0.009607014 -0.2013419 -0.032691386 0.03091167 -0.2179224 0.2300019 -0.23062922 0.397517 -0.022606825 -0.17942488 0.18968168 -0.298923 -0.036791254 0.26120335 -0.23418796 0.0669794 0.31290236 -0.15498444 0.023451382 -0.09491088 0.113174625 0.27702433 -0.00032327443 0.004643205 -0.08219712 -0.0047199037 -0.07299915 -0.3054262 -0.31674954 -0.109784886 0.37386233 -0.1631566 0.17743151 0.006326939 0.1198732 0.03171648 0.08973495 0.021576168 0.17925276 -0.10824652 0.079512924 -0.11234053 -0.2222043 0.1286263 0.1786878 0.14789645 0.19466226 0.13122085 0.1604014 0.18428385 -0.044710986 -0.08156922 -0.12692146 -0.011006776 -0.012644737 -0.12963349 0.05970594 -0.021815423 0.026920581
68 0.17092861 0.066754736 0.30329126 0.19955778 -0.037334893 -0.3246786 -0.038259722 -0.014059324 -0.24404147 0.20439498 0.0966724 -0.047596727 0.04193001 -0.21324882 -0.41450635 0.13909501 -0.037260048 -0.090427324 -0.2644392 0.09835701 0.16773884 -0.010998653 -0.06238095 -0.08082302 -0.24683492 -0.07557701 -0.3364634 -0.07694399 -0.38859916 0.0022320224 -0.017391384 0.23505926 -0.06016363 -0.17040388 -0.039002206 0.029278906 0.07219967 -0.32543728 0.25600857 0.18923183 0.036690313 -0.23541133 -0.3094422 -0.2271215 0.27966776 0.07070633 -0.1601112 -0.038907725 0.010478992 0.10670768 0.004723902 0.20423955 -0.22542892 0.23913455 0.05327921 -0.36496195 -0.15099762 -0.0869384 0.05742296 -0.04590873 -0.3584072 0.05057056 -0.19309357 -0.08588995 0.4151349 -0.21179783 -0.04555483 -0.025803912 -0.1279857 0.016425127 -0.14126302 -0.1590339 -0.040664718 -0.3014741 0.17822307 -0.2550527 0.2526679 -0.092073955 -0.22785749 0.114924975 -0.14934026 0.011907981 0.1800848 -0.105355844 0.16933016 0.14933632 -0.30357462 -0.01108385 -0.1880603 0.10154888 0.19220984 -0.12288764 0.002988676 -0.025088677 -0.063676246 -0.111687966 -0.3997029 -0.28592554 -0.018896753 0.30017382 -0.23015206 0.1706701 0.048286166 0.06585066 0.12541084 0.20670846 -0.16639154 0.13490072 -0.030999228 0.21664812 -0.14547147 -0.318973 0.057999074 0.3080769 0.21484837 0.26127782 0.14413093 0.14225322 0.16030946 0.0100200325 -0.037144758 -0.009018886 0.07036749 -0.070117675 -0.21046558 0.09705197 0.085924886 0.111706555
71 -0.24539997 0.28189403 0.30412966 0.14461054 -0.31149063 -0.08397679 -0.04196292 0.4055958 -0.11405783 0.042496234 -0.08343789 0.5543564 0.16007462 -0.067360595 0.17480245 0.22129056 -0.440171 0.044364516 -0.21116248 0.16183281 -0.012563712 -0.13631794 -0.01536122 0.041184165 0.19661027 0.07034683 -0.08059673 -0.030188033 0.46298647 0.11924701 -0.09916711 0.18023776 0.15975077 -0.3884612 0.47203004 0.005538584 -0.0034285255 0.056177344 0.21460202 0.0019219646 -0.1703311 -0.09509766 0.18755452 0.06757381 0.30284578 -0.031027175 -0.17044654 -0.07185555 0.05077577 0.037087534 -0.20053282 -0.081935294 0.026232373 0.037772197 0.20738056 0.21756683 -0.23462313 -0.1357058 -0.019257192 -0.009347631 -0.012040087 -0.17680572 -0.072162084 -0.36024123 0.11664074 0.2259223 -0.01838387 0.028313046 -0.09265575 -0.03830223 0.13683408 -0.1292435 -0.33029914 -0.3046086 -0.2138561 -0.3045221 -0.10929494 -0.16287681 0.08401823 -0.082072996 -0.07373681 -0.18217233 0.13251323 0.049451593 0.35054728 0.088625334 -0.26421577 -0.16552547 0.19845667 0.050017305 -0.08816511 -0.3013612 -0.06660634 0.034819372 -0.121453956 -0.045120694 0.124587335 -0.13630877 0.33852252 -0.2815386 -0.17787154 0.15098792 -0.11716209 -0.017351173 -0.1014119 -0.031124538 0.12836626 -0.21443197 -0.044159424 -0.02532738 -0.052408155 -0.13987589 0.01621025 0.221766 -0.010738637 0.031890754 0.38036156 0.13914052 0.2277771 -0.034387898 -0.39621782 -0.07511347 -0.029787678 0.108316176 -0.3149102 0.17015135 0.13008873 -0.45899913
92 -0.058504865 -0.11508651 0.34145737 0.020036615 0.04711761 -0.07547268 -0.0022318405 -0.03065069 0.31794178 0.20250723 0.20419557 -0.05122621 0.16341352 -0.19868754 -0.07494894 0.014636285 0.013657087 -0.10796542 -0.25271574 -0.069754645 -0.07780901 0.14443749 -0.00564348 -0.122367024 -0.3527264 -0.16419119 0.11315902 -0.22404692 -0.0587614 0.15694933 0.19047011 0.056672044 -0.31869805 0.1927016 -0.08080679 0.46505862 0.32544392 0.17840745 0.11975652 0.14186059 -0.2863724 -0.0036733344 0.05638406 -0.0041728807 0.20911802 0.029428113 -0.18693092 -0.46218124 -0.22992122 0.33542126 -0.07256031 0.33301663 0.07886696 -0.1545811 -0.32350156 0.36023244 0.12729037 0.16279775 0.13837402 -0.14136837 0.12948866 -0.008431515 -0.09901923 0.02350635 0.14354298 -0.44290963 -0.13633384 0.15708578 -0.16059555 0.23816994 -0.27430356 0.16397113 -0.52435964 0.20239744 0.13150014 0.0665511 0.07521514 0.21268542 -0.19969155 0.4978285 -0.10025186 0.012426007 -0.17064498 0.4567082 0.18000631 -0.2047539 0.54832107 -0.16062994 0.18211079 0.10639967 -0.00642813 -0.09616668 -0.15536799 -0.16100322 0.24757169 -0.11426173 -0.040879566 -0.3319292 -0.06671939 -0.5627883 0.07991833 -0.14212327 -0.020156091 0.011261986 0.11649555 -0.11127816 -0.09333431 -0.17237683 -0.07588521 0.28460312 0.27675712 0.23477367 0.3677851 0.14370474 -0.14747111 -0.16581634 -0.01998557 0.13372974 0.023708984 0.085092895 0.12821731 0.12155238 0.09259477 -0.16350168 -0.010509861 0.048493076 0.01567084 -0.058942165
72 0.3539457 0.05598143 0.5006862 0.051301032 0.1949209 -0.38319704 -0.034946654 0.116327226 -0.1372172 0.24893737 0.14616297 0.2552594 -0.19265063 0.19112036 0.21377139 -0.038116932 -0.23511662 0.10641189 -0.043697797 0.2883381 -0.073133886 -0.009508249 0.30734456 0.19652343 -0.04979884 0.0836999 -0.052462954 0.055564355 0.50786674 0.1622473 -0.4240417 -0.34748805 -0.24375628 -0.098601386 -0.34841898 -0.03826131 0.23785874 0.061019816 0.28293812 -0.04045156 0.3035866 0.3188095 0.12613031 -0.10058197 -0.10660361 0.24100986 0.15649512 0.18782471 0.35791853 0.004182961 0.14287834 0.064323336 0.38512874 0.19695207 0.09187352 0.41318148 0.17721502 -0.19812985 -0.2736994 0.0555049 -0.28627926 -0.014749918 0.03753382 -0.035618205 0.042762753 0.032461096 0.0957678 0.212009 -0.029445624 -0.3143666 0.10838363 0.18474351 0.0033866276 0.035370093 0.066099904 0.11575499 0.14987107 -0.035689585 0.14415602 0.28064534 -0.03404508 -0.13924764 -0.12587094 0.173962 0.20440006 0.03056873 0.023153659 -0.2567979 0.04222998 0.39950386 -0.19362189 0.010837842 0.08570663 0.17498949 -0.19274399 -0.071349986 -0.10382032 0.22392587 -0.061610986 0.10098161 -0.48820198 0.13280606 0.099966265 0.3087538 -0.039388508 0.39117533 0.36195472 0.24897116 -0.27531335 -0.21343876 0.18043484 0.17406158 -0.031494386 0.34188834 0.17617612 -0.022482479 0.2630969 0.41310963 0.21131481 0.09100099 -0.36655313 -0.17292893 0.11464348 -0.19294481 -0.1425261 -0.07639313 -0.06883867 -0.13215026
93 0.07268191 -0.07080827 0.19211675 -0.13598292 -0.14333504 0.0052660196 0.06797231 -0.29374054 0.23803595 0.16850454 0.16683789 0.08233243 0.19685195 -0.05372184 -0.18018344 0.19203678 -0.2480421 -0.05262227 -0.012367214 0.06403657 -0.24355678 0.25977105 -0.017824141 0.030257065 -0.24567953 -0.09661706 0.18814577 -0.15886456 0.29957733 0.2783044 0.17358378 0.03470407 -0.3429385 -0.0064999866 -0.11282801 0.5167508 0.2786716 0.2922989 -0.15114501 0.27405426 -0.13650818 -0.03230559 0.13586849 -0.051443897 0.18426974 -0.05453289 -0.19710742 -0.38379538 -0.1378798 0.39669916 -0.07593001 0.31573722 0.2139676 -0.05225821 -0.27298957 0.29186487 0.17555615 0.01996711 0.15716131 -0.037764303 0.010577647 0.19291 -0.15276876 -0.07801054 0.102630764 -0.40854803 -0.40488163 -0.077553794 -0.2939595 0.15248016 -0.16417477 0.03169986 -0.53249705 0.063231446 0.39923403 0.08176148 -0.11671976 0.17490774 -0.19400598 0.4738852 0.20569402 -0.17368415 -0.108412236 0.073134445 0.11670222 -0.12497889 0.49990305 -0.07972463 0.23354203 0.09732744 -0.06802901 -0.03683544 -0.22121966 -0.2775848 0.37468198 -0.13250701 -0.16147323 -0.25559968 0.13336626 -0.4015894 -0.023357151 0.03967925 -0.12511317 0.104775995 -0.13230108 -0.20303968 -0.067358054 -0.061948873 -0.10310437 0.24893007 0.45522928 0.21377209 0.27197912 0.21627502 -0.33881208 -0.1520213 -0.08185517 -0.01855231 -0.048594493 -0.2017619 0.31475824 -0.16376795 -0.016604243 -0.1576085 -0.11933054 -0.16923541 0.11426046 0.31115994
96 0.049282372 -0.07167078 0.20962043 -0.13192548 -0.1843748 0.110852465 0.13643226 -0.25299746 0.22822714 0.19328305 0.12433952 0.089683995 0.2448917 -0.057211954 -0.26992065 0.21499461 -0.25698638 -0.053778984 -0.073554225 0.052386954 -0.30240586 0.11254092 0.023631133 0.03137668 -0.2150301 -0.22652605 0.16987519 -0.16306767 0.40908352 0.27776527 0.10970508 0.10434308 -0.41944128 0.006564753 -0.17541139 0.4538001 0.32120806 0.26851612 -0.021570608 0.29522142 -0.15435238 -0.115892276 0.24589364 0.016265057 0.2245763 -0.0076618395 -0.17338127 -0.518752 -0.11180509 0.3489943 -0.06789765 0.32208988 0.17676018 -0.058662947 -0.27653718 0.3323352 -0.030391352 0.076977074 0.123191714 -0.0582897 -0.13080001 0.2550622 -0.10116643 0.048878007 0.028516237 -0.43148184 -0.29201776 -0.09624216 -0.2898864 0.15180713 -0.095548175 -0.043972578 -0.45574003 0.042422358 0.3930765 -0.005055926 -0.09710301 0.26275378 -0.17505242 0.49739695 0.06438526 -0.08055453 -0.17230225 0.18189533 0.10573938 -0.11722806 0.52250326 -0.09448482 0.12775293 0.10242987 -0.07895826 -0.15009053 -0.21651046 -0.21029711 0.3487395 -0.12271272 -0.1471901 -0.26564765 0.08033056 -0.3817903 0.04212885 0.115571015 -0.13993452 0.1305814 -0.044254743 -0.2775879 0.039525386 -0.021167148 -0.119544595 0.13689448 0.366211 0.09901121 0.22527455 0.19992965 -0.25866807 -0.2177863 -0.060479272 0.011030458 0.0054435087 -0.102863364 0.32159895 -0.13097201 -0.09743063 -0.30869576 0.05221815 -0.15311107 0.17764033 0.20777544
924247594312409088 0.46698922 -0.10468135 0.21145925 0.0820688 0.09733777 -0.33637503 -0.026646396 0.09091801 0.050118916 0.25859594 0.24243581 -0.26259223 0.21367535 -0.09549493 0.3719678 0.4160784 -0.3395959 0.061893124 0.28298807 0.0713108 0.29231232 0.25911868 -0.19311441 0.049863312 -0.16454756 0.05534336 0.17131904 -0.0715073 0.44777715 -0.0047146333 -0.0077325637 0.10448503 -0.10561771 -0.20312528 0.013888911 -0.026201019 0.19035931 0.20447154 0.1290421 -0.02681831 0.11557191 0.24810413 -0.11839601 0.22128738 0.12034817 0.39679852 -0.06394586 0.2545517 0.49478295 0.29536876 0.13668749 0.091072 0.022699725 0.36135635 -0.13650481 0.14376739 0.06936385 0.2917189 -0.5087417 0.19401759 -0.036011066 0.4186764 0.27371746 -0.06398913 0.68734324 -0.45086962 0.023554292 -0.18277696 0.46908572 -0.19580947 -0.3464983 -0.16455698 -0.073142655 0.14461377 0.040655453 -0.33995783 0.20853564 -0.0122736115 -0.19899863 0.14917518 0.07238152 -0.027536163 -0.38418597 -0.049772058 0.17459814 0.3017006 -0.1538391 0.2480153 -0.2500184 -0.36258724 0.048450764 0.10263371 -0.08079303 0.3284121 0.21636766 -0.28444552 0.1649299 -0.04269788 0.15873815 -0.34479192 -0.24464627 -0.06264573 -0.38101825 -0.077074446 -0.09955843 0.045712437 -0.30454904 -0.4705594 0.27795455 -0.1449916 0.14917848 -0.5134672 0.18884629 0.0019447071 -0.21706954 0.12590507 -0.10953352 -0.5200165 0.075102836 0.19239883 0.06673265 0.16420522 -0.07687723 -0.2810355 0.06515121 -0.020272506 0.19228564 0.0033815282
75 -0.34464797 -0.11717039 0.1496615 0.17790473 0.32365078 -0.19493343 0.043968953 0.15219286 0.2827401 0.10103491 0.011883364 -0.113741435 0.26845023 -0.5409686 0.21730405 0.14211863 -0.12985744 0.08686098 -0.06190929 -0.06844052 0.19792818 -0.028812004 -0.040704254 -0.096107185 0.038851865 0.06308274 -0.0522589 0.36827686 0.10913109 0.1704188 0.019590748 0.18746783 0.009036129 0.07708161 -0.014528228 -0.438158 0.19210261 -0.3723926 0.2091381 -0.14070494 -0.19106604 0.03890168 -0.020468734 0.03473258 0.44941846 -0.06570911 -0.21126474 -0.198338 0.08194662 0.018754458 0.3337632 0.021260358 0.049555767 0.14764692 0.3558465 -0.16060364 -0.18220271 -0.04947703 -0.21894397 -0.42125222 0.12435103 -0.23849115 0.44994366 0.0028852443 -0.26203996 -0.30346784 0.041694053 0.109668344 0.023246652 0.22652104 -0.05164516 -0.04239351 -0.26423302 -0.17534408 0.2975673 -0.1608105 -0.0036380352 0.025448851 -0.34449092 0.23429579 -0.058070593 0.0507992 0.5719361 -0.005762422 0.03684456 0.3872291 0.11733278 -0.2399767 -0.032699864 0.09684881 -0.16854061 -0.08850679 -0.079591684 0.028940938 0.023461733 -0.09289225 0.09488856 -0.37220702 0.17326647 0.12585643 -0.12332535 -0.20902066 -0.24585943 0.0426359 0.047472082 0.17626637 -0.28976518 -0.14421402 -0.15238886 0.18471201 -0.017149433 0.34345165 0.26435158 0.18062253 0.29883122 0.2804072 0.18800783 -0.059739467 0.44535857 0.079441264 0.017276885 -0.22454521 -0.054538503 0.30600366 0.036299802 0.00061038055 0.29961193 -0.056759838
74 -0.25867882 -0.18181866 0.27445844 0.23701382 0.22512539 -0.23626037 0.060524546 0.17152956 0.31047842 0.018486911 0.008234997 -0.10845572 0.15330271 -0.5997271 0.2341111 0.22124957 -0.08651702 -0.06229691 -0.051113755 0.016775563 0.10889236 -0.040364906 -0.04097646 -0.11801066 -0.033742443 0.11740382 0.04103961 0.35731408 0.07706541 0.14890125 0.04246185 0.20399864 0.008161333 0.06287554 0.05870606 -0.44571102 0.20649934 -0.34301975 0.18842757 -0.10438101 -0.20104547 -0.05779138 0.048655782 0.050966408 0.35873285 0.02141353 -0.26587874 -0.19828402 0.11438282 0.07978764 0.33298993 0.09541067 0.0030883662 0.15117976 0.39406294 -0.15339865 -0.1624407 -0.07101325 -0.17981218 -0.34101328 0.09346976 -0.2379035 0.541688 -0.08268578 -0.1535548 -0.32368964 0.0247061 0.12058838 0.098701276 0.32457745 -0.039527453 -0.007729076 -0.2554073 -0.14751296 0.3718984 -0.17176591 -0.086444214 -0.030414797 -0.29799443 0.14648475 -0.028011635 0.073468395 0.55134827 -0.014341723 -0.0004055558 0.41666305 0.1638717 -0.21633303 -0.098907806 0.16094238 -0.05480858 -0.1091619 -0.15055 0.15444821 -0.0068126977 -0.1680923 0.08309155 -0.34779593 0.14858338 0.12049796 -0.08887812 -0.05023545 -0.14478579 0.0037714115 -0.07510854 0.1400145 -0.3815472 -0.20292391 -0.1370701 0.08643755 -0.038333472 0.40782034 0.3241005 0.13198687 0.3158707 0.17693442 0.22697142 -0.079014264 0.38958392 0.06657918 0.03279791 -0.28237483 -0.063360475 0.2814344 -0.11480366 -0.016316762 0.2278379 0.046000596
78 0.08775231 -0.23248643 0.049638465 -0.19464378 -0.02071109 -0.13427582 0.05182488 -0.2636167 -0.068766 0.17027621 0.199412 -0.2559222 -0.020973412 -0.08484491 -0.13367832 0.4817999 -0.016576376 -0.12510437 -0.03547027 -0.00059636723 0.3350464 -0.08613101 0.52232707 0.1310859 0.032589775 0.054398034 -0.1398814 0.3365222 0.1169907 -0.029077591 -0.7765187 0.1990065 -0.098450094 -0.025217732 0.15940973 0.11715992 0.4124909 0.058626987 0.39222804 0.054974563 -0.0023454132 -0.1229611 0.13584144 -0.029968034 0.079209596 0.18897334 0.3155777 -0.48358864 -0.37811267 -0.1840393 -0.010532878 -0.07241928 0.049749415 0.17978594 0.08079154 -0.23839752 0.3674162 -0.42124248 -0.28607342 0.27130535 0.17723764 -0.06469962 -0.17655839 0.16307908 -0.009335013 0.048865736 -0.2531016 0.15919627 -0.06447219 -0.49983704 -0.23669997 -0.27704102 -0.47212043 -0.08046041 -0.05884864 -0.38225484 0.0067636543 0.2307584 0.13220067 -0.19833072 -0.1820461 -0.18455572 0.38494092 -0.075391926 -0.05337088 -0.026301252 -0.20253819 -0.06083432 0.053362854 -0.21486914 -0.25320497 -0.5300996 -0.011293127 0.057249013 0.16990148 0.073378935 0.06206534 -0.1297006 0.30174702 -0.15447445 -0.21093501 -0.026416812 0.16275457 -0.022315763 -0.09884936 -0.1304342 -0.21740405 -0.35780326 -0.36439174 -0.262074 0.037264265 -0.45305395 0.19260952 -0.27683768 0.031271745 0.3609704 -0.25246143 0.23356201 -0.2490067 -0.0790889 -0.19736762 0.16708772 -0.26076853 0.2043205 -0.28633642 -0.2901448 -0.03026308 -0.12299942
924247804354764800 0.31792983 0.16845532 0.17191976 -0.13020994 0.18383351 -0.09337426 0.10693843 0.20378654 -0.14733131 0.18254669 0.0047628214 -0.24026583 0.23220326 0.21481329 0.42401072 0.5170123 -0.2456468 0.0205804 0.2208067 0.3316848 0.41576466 0.0020606793 -0.2234324 -0.097504124 -0.39461645 0.06831652 0.31156346 -0.011240976 0.3813374 0.18747674 -0.09080525 0.12144102 -0.045614287 -0.18731879 0.1205409 -0.28596985 0.2828878 0.25137028 0.015455085 -0.09495628 0.17310745 0.2627533 -0.014054299 -0.100591704 0.23825224 0.31144932 0.032843467 0.09204744 0.30041677 0.5131593 -0.19726111 -0.17771515 -0.071345426 0.37187615 -0.1043496 0.14716363 0.19680898 0.33628705 -0.5175935 0.36710796 -0.19364893 0.20725204 0.23273876 -0.013890284 0.5540196 -0.31408352 -0.04551553 -0.40544024 0.5272404 0.10534983 -0.3465193 -0.18196383 -0.21798523 0.16048394 0.19016637 -0.44023806 0.013638137 0.14334114 -0.15786563 0.10645705 0.14342126 0.09533719 -0.19018616 -0.17621626 0.32762414 0.26045644 -0.01407416 0.21416879 -0.32510188 -0.4136715 0.14235462 0.112089895 -0.118946955 0.3620766 0.12426327 -0.32549292 0.20916724 -0.2156845 -0.013448496 -0.34200215 -0.26976576 -0.117551416 -0.2850622 0.055316873 0.023990395 -0.12491949 -0.14113942 -0.38245276 0.13512896 -0.09508257 0.047221925 -0.3043584 0.1723697 0.20302175 -0.19928692 0.1159504 -0.17074811 -0.10822429 -0.118423305 0.21267088 0.0608623 0.06606414 -0.07522089 -0.30926082 -0.045745313 -0.13007596 0.2235476 0.17344202
1241732829604618240 -0.14936873 0.15896215 0.46803504 0.17965831 -0.28037107 -0.24185 0.1714352 0.008633718 0.16677345 0.3381457 0.1963149 -0.11929327 -0.3141517 -0.21585874 0.62864333 -0.09215036 0.39871404 -0.12316499 0.3675933 0.13543212 -0.24468285 0.27396682 -0.17763194 0.11887231 -0.1855741 0.14174908 -0.17528091 0.5011982 0.27825588 -0.10571806 -0.23418139 -0.2730165 -0.21621934 -0.27350044 -0.09068774 -0.17625284 0.1654693 0.06673851 0.33043706 0.60394645 -0.37511483 -0.23048003 0.14015137 -0.023823291 0.5415248 0.5523002 -0.0028179963 -0.15588129 0.334558 0.10603075 -0.18929209 -0.15641314 -0.16540931 0.1911429 -0.056231555 0.289895 -0.22805409 -0.07279792 0.031046035 0.31914124 0.08829948 0.047405533 -0.33886698 0.2823938 0.26013198 -0.19342025 -0.08793725 -0.12847276 -0.4248391 0.15706919 -0.19550036 0.020132491 -0.08708633 0.13526173 0.63987154 -0.45360437 -0.12667307 0.22771914 0.06971604 -0.16948889 -0.13131087 0.003361161 0.14998327 0.15187621 -0.5322755 -0.0036698906 -0.08731939 0.5462589 0.45527473 -0.044127017 -0.0016515456 0.4506227 -0.24627368 0.32789013 -0.30834273 0.12081857 0.052856345 -0.2524154 -0.28156283 -0.14212993 -0.37794733 0.14498751 -0.1350837 0.025636068 -0.3024892 0.0656614 0.63335955 -0.15336971 0.3121995 0.36777985 0.41931742 -0.034130793 0.3662534 0.25281096 -0.06517533 0.21890886 -0.076334424 -0.04420973 -0.32819816 0.027988883 0.22084832 0.038655657 0.32605332 0.5928685 -0.09548487 0.024271723 0.19428241 -0.53793484
82 0.20424439 -0.03585995 0.5034795 -0.020422177 0.15438645 -0.40845585 0.0756786 -0.035680402 -0.39466104 -0.007935535 0.41324523 0.115568094 -0.025468 -0.60151154 0.11487313 0.37098643 -0.29955313 -0.2373106 -0.14231735 -0.30733252 -0.048941217 0.14159699 -0.016638512 -0.26037723 -0.025184384 0.36228892 0.043139257 -0.12538876 0.0018490811 0.08600764 -0.46897197 0.21858376 -0.3687738 -0.06731277 0.04456109 0.12987427 0.0911901 -0.05820417 0.51680505 -0.15827957 0.25769567 0.18635036 0.15897037 0.28419554 0.2660753 0.023803556 0.34169015 -0.35346046 -0.5352247 -0.058655206 0.107664086 -0.15898144 -0.109782554 -0.052724063 0.4140239 -0.19817433 0.21883047 -0.013228818 -0.07653521 -0.14908364 -0.034150403 -0.09146329 0.11089953 0.14928997 -0.10481243 0.17817943 -0.22874388 0.13547482 -0.11404897 -0.3964473 0.012890028 0.19059353 -0.08583273 -0.1400177 0.13676795 -0.36940047 -0.29326367 -0.1589388 0.04734917 -0.3580588 0.20716563 -0.002778989 0.45685714 -0.27583 -0.32301906 0.16094649 -0.032987524 -0.15414706 -0.050320867 -0.14099611 -0.186081 0.4254941 0.08332532 -0.1656797 0.15388776 0.08112473 -0.030248167 -0.18389414 0.17657876 -0.44024834 -0.30132294 -0.05163327 -0.39021772 0.0031149886 0.11435526 -0.33454016 -0.30073473 -0.24248856 -0.14152214 0.097454734 0.15197018 -0.053558435 0.05936666 0.15974355 0.080472834 0.278902 -0.100024395 0.02835996 -0.12359244 0.17430954 0.27328524 -0.3335495 -0.23679209 0.44382718 0.15448686 -0.3632189 0.20988809 -0.09296163
924249150001766400 0.49506143 0.1332047 0.29989174 -0.12521179 0.2854217 -0.15138845 -0.09964899 0.22991295 -0.079934485 0.021638408 -0.02004307 -0.46019801 0.31812683 0.038124356 0.23018472 0.52867943 -0.32551664 0.076494485 0.16542181 0.28777495 0.33350906 -0.034365557 -0.2661207 -0.3232147 -0.3358884 0.012309326 0.28601032 0.01271178 0.40331563 0.2261665 0.042824015 0.02935322 -0.10845788 -0.22104684 0.10104503 -0.18723196 0.33397007 0.13900879 0.14219908 -0.010709317 0.11117523 0.2998663 0.14292566 -0.10283522 0.13796934 0.15773351 0.035483822 0.11914678 0.33277363 0.48899418 -0.23615538 -0.28616393 0.045519307 0.23622726 -0.19354004 0.107199684 0.1868466 0.34604982 -0.5335458 0.30328596 -0.21282071 0.17115515 0.1972514 0.099614844 0.6316369 -0.22003227 -0.0032458373 -0.19603653 0.4575606 -0.06703683 -0.28178784 -0.20336019 -0.3069892 0.1577062 0.10147816 -0.25938016 0.055888437 0.23649278 -0.11173794 0.016616229 0.11873841 0.18242641 -0.20958053 -0.15371485 0.14273119 0.38736 -0.120942205 0.12998037 -0.24089466 -0.4412794 0.19953297 0.08143415 -0.3236692 0.3036524 0.22516418 -0.36493275 0.33348396 -0.2140278 -0.050490513 -0.2543423 -0.18069656 -0.11169711 -0.23998867 -0.05497074 -0.083746664 0.07054848 -0.050093353 -0.48728797 0.22061647 -0.13130121 0.08937549 -0.39671957 0.12425416 0.2673422 -0.3818725 0.28667283 -0.091648266 -0.098219894 -0.08889636 0.38879615 0.095305204 0.0473941 -0.0034569611 -0.2902385 -0.052287545 -0.06526283 0.25067437 0.2417062
98 -0.116903104 -0.078378275 0.4472717 0.33086666 0.144563 0.03057454 -0.08849337 0.13466077 0.25142902 0.21020046 0.25357807 -0.17676367 0.18733484 -0.35866234 0.06633314 -0.3605914 0.20102021 -0.3038499 -0.27105394 -0.116566144 0.0720193 0.03226684 -0.025372615 -0.2617898 -0.16618012 0.050826505 -0.15225932 -0.3399787 -0.025061585 0.040653657 -0.23481694 0.13929608 -0.057477795 0.32779196 -0.09532702 0.04234875 0.13473392 -0.035233088 0.24867195 -0.08737722 -0.31184196 0.11875942 0.011225665 -0.15428518 0.3136875 0.093671635 -0.20106204 -0.0940059 0.002036769 0.21600848 0.08455884 0.4811495 0.034707207 0.11344468 -0.31071684 0.14355704 0.07079622 0.25471365 -0.005614342 -0.14179792 0.160508 -0.123974465 0.15906721 0.33076462 0.35908726 -0.42054468 0.13358346 0.2616521 0.22517614 0.31165403 -0.0895892 0.22074607 -0.15542892 0.20597598 -0.2057965 -0.21290277 0.3102884 0.27573115 -0.25177267 0.33226493 0.023091294 0.27725828 0.07178233 0.40845895 0.103644006 -0.061296657 0.49305594 -0.10420988 0.2946237 0.14975385 0.1066275 -0.0018289556 0.042255726 -0.11209782 -0.111188784 -0.07408577 0.051782183 -0.20835622 -0.24897209 -0.48474845 0.0607455 -0.041746736 0.19299653 -0.0026606317 0.10000869 -0.2465309 -0.20459656 -0.24837194 0.14244972 0.31686524 0.07956849 0.09786733 0.4741095 0.08292808 -0.043373942 0.14930572 -0.013678565 0.17962205 0.0088388175 0.09198585 -0.19039431 0.20362417 0.29201928 -0.0668378 -0.058004342 0.061348293 -0.14208393 -0.29070088
97 -0.081050724 -0.05019389 0.4523854 0.3257039 0.15305082 -0.054998375 -0.15112628 0.23698121 0.23933616 0.33897445 0.16274175 -0.076571 0.24652283 -0.38626826 0.1379903 -0.26973352 0.28010127 -0.2855009 -0.26913774 -0.14224485 0.09704046 -0.071801394 -0.14379267 -0.2526878 -0.17229179 -0.04302176 -0.200521 -0.27229246 -0.13136342 0.2012872 -0.08662743 0.1723628 -0.06955255 0.3530228 -0.13156386 0.028993532 0.049524702 -0.08280144 0.19161154 -0.10669117 -0.44779944 0.17359972 -0.018278461 -0.18966919 0.20835696 0.18182178 0.019426258 -0.16499063 -0.054559905 0.18548189 -0.045948565 0.4338075 -0.102968805 0.12950541 -0.1726181 0.13108884 0.15857166 0.19763601 -0.06406179 -0.08059522 0.1790425 -0.16750884 0.07729734 0.25831488 0.34036815 -0.53458244 0.2068651 0.10138688 0.15448822 0.18885952 -0.02656485 0.2231563 -0.26150203 0.17664865 -0.1624186 -0.038368758 0.299866 0.3289304 -0.2108233 0.21412891 0.1090445 0.2688846 0.03592641 0.41371712 0.13544357 -0.14383927 0.5722139 -0.107514426 0.12123326 0.09983409 0.16949433 -0.02466788 0.03992912 -0.051140133 0.057854917 -0.009441639 0.092290185 -0.24654767 -0.23195307 -0.53879476 -0.0014079008 -0.0876448 0.17650522 -0.09281375 0.12150984 -0.20431599 -0.22267519 -0.28433725 0.20808038 0.34144682 -0.017582633 0.10507313 0.43028364 -0.0055701053 -0.20803207 0.04696076 -0.037022967 0.18695642 0.044409342 -0.027595546 -0.17707439 0.17020291 0.34155872 -0.050359722 -0.012656809 0.08530386 -0.032194283 -0.28910857
1558433137813139456 -0.028506257 -0.14276929 0.43788502 0.28632843 0.24495095 0.078466125 -0.117563516 0.0031425115 0.25301984 0.22957891 0.23330258 -0.09581717 0.3503632 -0.28056204 0.0092015 -0.2290583 0.114322014 -0.087446064 -0.049118936 0.101983055 0.015298554 -0.06456875 -0.3154893 0.039925374 -0.21444888 -0.14154069 -0.27875412 -0.090458825 0.0077708988 0.12670664 0.17519255 0.1903767 0.057185493 0.1680629 0.03154499 0.1046742 0.0361428 -0.071690865 0.2766538 0.040727023 -0.26733002 0.13740881 -0.10751214 -0.21199173 0.4554882 -0.045227904 -0.16049872 -0.09141327 -0.1377636 0.07311126 0.03204704 0.295732 -0.31702542 0.05674543 -0.07554526 0.12302487 0.010834191 0.023516664 -0.005797353 -0.29335904 -0.18596688 -0.14586641 0.1870236 0.24502172 0.09289524 -0.40185818 -0.010709978 0.24912612 0.05023976 0.05706158 0.027750984 0.133282 -0.20167252 -0.014502254 0.12547171 -0.23833156 0.20308909 0.43296516 -0.24862218 0.2332716 -0.03930784 0.13460279 0.20208126 0.15064785 0.14180124 0.13406804 0.18893135 -0.00067035167 0.056774005 0.2746876 -0.18585633 0.10630732 -0.14304797 -0.017129175 -0.04252765 0.012591686 -0.026515596 -0.31864244 0.120556496 0.151366 -0.11243585 -0.10342386 0.16675854 -0.03339418 0.23864737 -0.1429434 -0.1833706 -0.11923072 0.0062708617 0.055018567 -0.14770253 0.019978419 0.31978795 0.27925012 0.060151745 0.14047472 -0.15580833 -0.077725045 0.2837688 -0.014643438 0.018440966 0.032358028 -0.011563227 0.012639009 -0.17685811 -0.122865774 -0.03998038 0.15740097
1590044783081549824 0.13453726 -0.067139626 -0.21602865 0.2590663 -0.42954025 -0.39906034 -0.0401798 -0.14601508 -0.1829294 -0.25935197 0.23811574 -0.2544262 0.060585286 -0.3007339 -0.021329433 0.43533826 -0.21912935 -0.5275764 -0.055593133 0.09986503 -0.17749432 0.14753719 0.26870936 -0.2384453 -0.02157013 0.32501328 0.0667626 0.13488697 0.022099895 -0.39100334 -0.54259205 0.061987408 -0.14913046 -0.061342668 0.38400394 0.075813875 0.39235696 -0.059563838 -0.15471667 -0.19310012 0.08443228 0.21298802 0.18679214 -0.10162054 0.41844946 0.10503878 0.28035963 -0.30950585 -0.59782827 0.17941095 0.1738601 -0.10440615 -0.00680742 0.08873179 0.103399105 -0.12136775 0.5112724 -0.20467332 -0.27948815 0.049131036 -0.08282999 0.03438604 0.18151599 -0.067135766 -0.040491182 0.36356804 -0.24450806 0.3194594 0.18496628 -0.70244294 0.08623344 -0.27879608 -0.4397964 0.09763423 0.032730125 -0.16732071 -0.032024737 0.069583364 0.12198044 -0.081872925 -0.08152256 -0.086035065 0.18730944 0.026331903 -0.22760464 0.04078672 -0.05299804 0.10148967 0.0876765 -0.20431843 -0.17799032 0.052985284 0.28550258 0.25353724 -0.009359497 0.32135245 -0.10243357 -0.41531146 0.057230007 -0.26934668 -0.18262662 -0.06991725 -0.27742454 0.20225087 0.12030684 -0.29219908 -0.07918845 -0.3581197 -0.21192089 0.36984974 0.16255845 -0.2056576 0.18919016 0.078786016 0.056095205 0.26252034 0.04789761 0.19995385 0.14409676 0.28464067 0.09482018 -0.0806202 -0.23147427 0.41523042 -0.109416045 -0.75427735 -0.0006103203 -0.057020027
99 -0.28559095 0.012912401 0.45040792 0.4491013 0.23294668 -0.11096176 0.05211184 0.11585882 0.35458305 0.28005654 0.028648822 -0.047777694 -0.0015083316 -0.4254765 0.12503846 -0.34159523 0.28511786 -0.1407545 -0.1523482 -0.052098405 -0.021929516 0.007781764 -0.013649799 -0.18211499 -0.04105711 0.10864877 -0.15104249 -0.39123723 -0.21833366 0.3128829 -0.21679229 0.2313101 -0.0248547 0.30975696 -0.11686083 -0.05139954 0.20983845 0.066165514 0.3349288 -0.1647407 -0.14940722 0.06550874 -0.13406847 -0.18493547 0.3302646 0.14231242 -0.1594542 -0.055104256 -0.13779408 0.19827326 -0.04142882 0.45965847 0.07364218 0.055431247 -0.3655764 0.28496128 0.2003875 0.19479404 -0.09868777 -0.26099968 0.020519061 -0.12228642 -0.05211698 0.28280053 0.2579366 -0.31463808 0.12522721 0.41816235 0.14977852 0.27769434 -0.129439 0.16925581 -0.28551364 0.23330276 -0.042726718 0.021095995 0.36871156 0.22728832 0.015132517 0.21848267 0.06632626 0.30443802 0.116937965 0.49668047 0.04469123 0.04578678 0.47378066 -0.18394096 0.098985806 0.08246379 -0.0093983775 -0.088669576 -0.03590669 -0.119725436 0.0043797097 -0.08343654 -0.10653768 -0.26265714 -0.15819515 -0.32131714 -0.0862427 -0.1987633 -0.037611347 -0.16822039 0.112972304 -0.3450119 -0.31854028 -0.21489528 0.33924225 0.2814475 -0.17312658 0.0030428686 0.5110673 0.032931436 -0.19536184 0.034309722 -0.09392255 -0.03727119 0.05590224 -0.016490374 -0.22362328 -0.0137714 0.33338413 -0.14059225 -0.15665047 0.07303084 0.07853112 -0.22438994
1522415485348610048 -0.11406862 -0.33051538 0.037698906 0.217587 -0.35890248 -0.23193596 -0.015817923 0.1903781 0.2720574 -0.12374632 0.19860744 0.038063627 0.25748205 -0.04433051 0.20566142 0.26511398 0.057362568 -0.21200758 0.3217324 0.323775 0.25675902 -0.1813228 0.3782821 -0.27745357 -0.16234915 0.20795654 0.24973704 0.08563087 0.18131897 0.5567528 -0.035289153 -0.06075435 -0.3534761 -0.023917964 0.18671875 0.15727007 -0.50897163 0.01666043 0.26540622 -0.25688004 -0.09887936 0.07885351 -0.039609578 -0.084607296 0.13985832 0.28752986 0.20553456 0.0013055016 -0.05804039 0.65084654 -0.022213927 -0.31488934 -0.35082564 0.45496553 -0.05995319 -0.2508516 -0.077680185 0.36415726 -0.6891808 0.08765237 -0.5709934 0.20253856 -0.17638342 -0.006951492 0.2937279 -0.31410667 -0.36077875 0.24364367 -0.2555317 0.13683999 -0.30196857 0.14912626 0.18746814 -0.13985874 0.12451343 -0.33612093 0.3956191 0.18939069 -0.10546515 -0.22533123 0.35241023 0.052603666 -0.1906218 0.41279486 0.23647311 0.34138677 0.238297 0.10726772 -0.22855835 0.18612823 -0.1553145 0.2086276 0.118041076 -0.023465915 0.32409108 -0.14014712 0.6998651 0.03735931 0.32831147 -0.15320204 0.041206986 -0.06934629 0.006035393 -0.1488324 -0.39152664 -0.19600438 0.15469201 0.13890272 0.04832887 -0.33476517 0.71668583 -0.049320843 0.092170924 0.46997252 0.020321075 0.63109416 -0.22268438 0.06264036 -0.1336007 0.576826 -0.16481908 0.19770718 0.42333362 -0.22466837 -0.14201845 -0.07774298 0.29410022 -0.12494578
1321851086127194112 -0.018144762 -0.006808596 0.22105749 0.053570088 0.027655603 -0.4750655 -0.13073595 -0.35566774 -0.3685627 0.18387334 0.1347476 0.0043759663 -0.14719974 -0.26044318 0.021748383 -0.032856543 -0.026552143 -0.3403426 -0.33263645 -0.3292611 0.066687874 0.042963617 -0.13480715 -0.16892485 -0.10353142 0.1940881 0.09237492 0.15075375 0.08071622 -0.10313054 -0.64913034 0.12572357 -0.3117251 -0.13461028 0.06735106 0.15378626 0.13922675 -0.14065656 0.4481881 -0.071296774 0.06274047 -0.088914886 0.38025233 -0.050839387 0.18249603 0.30424115 0.2563171 -0.25102624 -0.19219197 -0.068718374 0.016777214 -0.09859451 0.10132018 -0.035382133 -0.08219884 -0.40348247 0.5199625 -0.6231009 -0.34074765 -0.13499187 0.06838431 0.12985447 -0.017097577 -0.17492646 -0.13024406 -0.09509061 -0.089217074 0.019102482 -0.08250772 -0.478947 0.02157943 0.056774523 -0.099723004 0.15372004 -0.091951676 -0.6986636 -0.20883498 0.03887615 -0.31320208 -0.17429422 -0.057379622 -0.22174442 0.25238603 -0.21408196 -0.36694074 0.043380097 -0.1448585 -0.023087095 -0.14804254 -0.055759247 -0.48160887 0.027088339 -0.010035131 -0.005928695 0.4532827 0.034462765 0.42908818 -0.36851475 0.062288187 -0.19995423 -0.19339333 -0.023183357 -0.24523512 -0.3457584 0.049925942 -0.19078355 -0.14074934 -0.15887152 -0.101101235 -0.3014095 0.39061117 -0.33842805 0.3968253 -0.13827682 0.19706477 0.1215702 -0.33076468 0.3020651 -0.088825084 0.03613218 0.13236518 -0.13363706 -0.25973564 0.16476712 -0.08730873 -0.0107425535 -0.12581374 -0.091170125
1589881871276736512 -0.01807698 -0.0186826 0.11468522 0.09706785 0.060974583 -0.2256728 0.022011738 -0.021942696 -0.069896504 0.21414766 0.16319017 0.23611411 0.20166592 -0.3030898 0.038817775 0.009932038 -0.09999841 0.37878472 0.14035198 0.1663239 0.2018688 -0.29025412 -0.059688132 -0.04524783 -0.033506393 -0.004986819 -0.35546288 0.23887964 -0.11101265 0.26719776 0.015425594 0.22174112 -0.039218895 -0.031977236 0.010605665 -0.0695313 0.066864535 0.0769667 -0.21603626 -0.085862525 -0.05782661 0.36120534 0.03301325 0.027383326 0.28058934 0.056155547 -0.0637918 -0.12161437 0.39068493 0.09340311 0.16749005 -0.042841673 -0.38941628 0.057648975 0.256406 0.026460992 -0.03354989 -0.24455458 0.045052204 -0.28627706 -0.311609 -0.22337334 0.1605317 -0.109632455 0.31887165 -0.07482376 0.07136205 0.24292879 0.058344066 0.08222947 -0.079950556 0.033641048 -0.22783856 -0.34819353 0.19883457 -0.24433163 0.015793297 0.1437814 -0.26395753 -0.06903134 -0.049543053 -0.1692433 0.4002674 0.20508541 -0.14818181 -0.034700174 -0.14513078 -0.24828176 -0.06056231 0.15042736 -0.19358276 -0.057192564 -0.30707577 0.1298808 0.088554054 -0.19319728 0.08835152 -0.34477204 -0.03147264 0.18686077 -0.16318546 0.080459304 0.066934034 -0.27770132 -0.03303068 0.33721226 -0.16636756 -0.1730201 -0.09611806 0.026942652 -0.027871475 -0.16457124 -0.090999246 0.18420139 0.12105723 0.14602678 0.12811327 0.32344088 -0.069740586 -0.023337621 -0.13003369 -0.21481228 -0.16199613 0.25152025 -0.32633448 0.0363295 -0.028897326 -0.19666232
1558705455017799680 -0.10273063 -0.16353686 0.35919458 0.21973327 0.18389058 -0.12802336 -0.2160485 0.07674073 0.24407895 0.099545605 0.11725803 -0.3851595 0.29129267 -0.350917 0.27626288 -0.2340623 0.1426369 0.001523306 -0.076261245 -0.03524501 -0.09270723 -0.10079467 -0.310149 -0.020315234 -0.07962129 0.05743149 -0.036305446 -0.0011033152 0.20158024 0.04075225 0.057687987 0.1982994 -0.03835702 0.27591962 0.101658955 -0.14596307 0.045021567 -0.14041507 0.25535503 -0.060982592 -0.10382797 0.105896026 0.117241204 -0.25539193 0.4298466 -0.048886422 -0.11972606 -0.18861164 -0.113483585 0.12445562 0.100793354 0.2896392 -0.17258283 0.1458487 -0.015898408 0.113141835 0.013231837 0.036303293 -0.028393174 -0.26727116 -0.056899305 -0.20387468 0.22769617 0.13084474 0.07617594 -0.38686055 -0.11634091 0.18937185 0.06132403 0.30707157 0.011723951 0.42067632 -0.38243243 -0.031116495 0.02870763 -0.20840257 0.15122166 0.35641968 -0.04477186 0.23699349 -0.023381805 0.19768867 0.26695538 0.18385385 0.027783943 0.14236914 0.3930553 -0.14938325 0.17387101 0.18131317 -0.07556471 -0.09116764 -0.13107257 -0.12096021 0.080070995 -0.19615683 0.036939792 -0.31204167 0.17837907 -0.086587965 0.08588641 -0.13615577 0.05482776 0.04476446 0.18878312 -0.20605181 -0.20379013 -0.13070312 0.15032394 0.1679829 -0.029117754 0.15630816 0.43842795 0.10512308 -0.017102119 0.00873948 0.011538142 -0.24097669 0.15665677 0.0009965509 -0.06946282 -0.019977024 -0.022623302 0.0110428035 -0.17215078 -0.07783456 -0.11139492 0.12645502
1402403474704715776 0.2931059 -0.22605537 0.18541734 -0.006941937 0.0460849 -0.36951256 -0.039754435 0.018360801 -0.08583131 -0.10960321 0.25050625 -0.32443058 0.42890957 -0.14426826 0.3563385 0.38634828 -0.22728394 0.031343568 0.37806726 0.12162094 0.39195848 -0.3533004 0.1203499 -0.07620596 -0.31585824 0.29521438 0.18037222 0.04332816 0.1382321 0.31953964 0.12933081 -0.046635523 -0.18776757 -0.13574366 0.0927227 -0.3057138 -0.22863084 0.06688839 0.22534071 -0.30697283 0.027819967 0.22813135 0.06477244 0.07493469 0.21989444 0.4137982 -0.034584697 0.11235893 0.10348903 0.5829677 -0.24734935 -0.2038794 0.025836857 0.26289815 -0.21368252 0.0017338665 0.018168356 0.38843355 -0.411275 0.36188278 -0.11671595 0.26894218 0.16621977 -0.027921312 0.4330284 -0.23573421 -0.2703817 -0.24512155 0.04876839 -0.16490394 -0.23658094 0.03190709 -0.09814979 0.0020611726 0.24960601 -0.060585123 0.24580194 -0.032309063 -0.022460917 0.21707003 0.14079636 0.13849087 -0.16736235 0.0899912 0.32469597 0.31379977 -0.047886793 0.33779472 -0.37238568 -0.2927938 0.035335165 0.06999166 0.0010042199 0.1738438 0.12381534 -0.18921113 0.43985677 -0.14920044 0.24118453 -0.31242782 -0.28491122 0.0015745827 -0.23266053 -0.16014451 -0.32881853 -0.20836166 -0.18539159 0.045000635 0.19833036 -0.27997628 0.42966416 -0.44274154 0.23735483 0.28877315 -0.26239067 0.11477292 0.07059952 -0.095931165 0.12132441 0.5129439 -0.12804201 0.21858369 0.08726966 -0.3653275 -0.11271949 0.18559362 0.44454056 -0.0677967
80 0.11586483 -0.013278085 0.12705317 -0.08700569 -0.23395282 -0.11039113 0.18614265 -0.066318266 0.04775895 0.4039446 0.078253224 -0.32552677 -0.09202963 0.144924 -0.06750072 0.24219067 -0.0053506326 0.108189434 0.21712238 0.21639976 0.36124393 -0.14759207 0.5966364 0.15253706 -0.00883065 -0.15450287 -0.14350468 0.28169444 0.07722587 -0.031669583 -0.7097301 0.030936277 0.064207956 -0.076669596 0.17267898 0.06981477 0.35906813 -0.25260785 0.34650382 -0.00747671 0.099393 -0.18787913 0.016276276 -0.12600711 -0.054536097 0.2922732 -0.099257365 -0.43035352 -0.23283294 -0.34589177 -0.084259644 -0.2683319 -0.11735128 0.061270874 0.031921852 -0.22634521 0.52228284 -0.24466367 -0.07193458 0.17392553 0.46979505 0.045143355 -0.2244494 0.030792136 0.15938124 0.17104398 -0.22462915 0.20702465 0.08296308 -0.650614 -0.13017659 -0.3231377 -0.47797117 -0.022264462 0.076957166 -0.09882974 0.23605987 0.4177976 0.15656133 0.0074283774 -0.120763436 -0.012917826 0.37091872 0.09684574 0.038374856 0.0025251596 -0.1970928 0.17705224 0.37025708 0.07758373 -0.2680906 -0.5792352 -0.120873235 0.19197552 0.48436335 -0.3472706 0.32751462 0.040811263 0.40820384 -0.2509836 -0.1456706 0.0045679337 0.1194129 -0.1103995 -0.5312526 -0.4075409 -0.17590934 -0.40702116 -0.22363994 -0.08504279 -0.13333337 -0.17588124 -0.06424903 0.007853062 0.11859799 0.30552003 -0.25974375 0.15605259 -0.017923929 -0.112833 -0.12993057 0.30034366 -0.16087009 0.11548896 -0.028958095 -0.24515636 0.07452322 -0.2315924
1345792227007266816 0.18104208 0.069272764 0.500457 0.2398025 0.2210198 -0.06699493 -0.21600766 -0.045577154 0.027701514 0.044606198 0.24529248 0.0212341 -0.05991823 -0.36611858 -0.26542085 -0.013766336 -0.30530995 -0.1960914 -0.4023217 -0.028854435 -0.047891613 -0.19385867 -0.27858722 -0.12536071 -0.36947313 0.046028264 -0.16039468 0.17396905 -0.15451005 0.06436078 0.008895144 -0.0070962682 -0.19001625 -0.13528398 0.08010478 0.21417598 0.07763345 -0.11775615 0.21396753 -0.026087504 0.1308169 0.031509615 0.10699209 0.34590453 0.47823167 0.0073819202 -0.053578798 -0.2377051 -0.10732324 0.07925686 0.4395719 0.019486904 -0.23328899 0.24700655 0.36091894 -0.39181146 0.06577654 -0.033560414 -0.22789003 -0.084257096 -0.081458464 -0.08583343 0.25441992 0.18810704 0.06067206 0.22038035 0.133273 0.17150569 0.03387438 -0.17914234 -0.24001093 0.37148598 -0.06508014 -0.081804484 0.24533813 -0.2198261 -0.13374606 -0.21668002 -0.31088674 -0.07716204 0.07852821 0.18242335 0.46936134 -0.20909354 -0.116565354 0.33098483 -0.11769216 -0.10193168 0.04473394 -0.069067486 -0.16478167 0.021927062 0.0053305165 0.04074491 -0.027756026 0.03160693 -0.10972084 -0.44741774 0.13960494 0.10017467 -0.08669029 -0.2458791 -0.21556573 -0.2976706 -0.024565883 -0.07786874 -0.47175717 -0.01340171 -0.21868455 -0.10963059 0.11174539 0.009518317 0.08145068 0.084168024 0.21519919 0.07447398 -0.06440715 0.055739485 0.172754 -0.0039860867 0.21403645 -0.24035925 0.07842288 0.44396633 -0.13434064 -0.28622812 0.22868533 -0.03487466
1402168890196119552 -0.002207373 -0.074741594 0.2566388 0.11981284 -0.0807114 -0.005252073 0.021582153 0.27278697 -0.108784765 0.089887865 0.15868723 0.0031012131 0.13739362 -0.2606426 0.05228903 0.06757077 -0.25298724 0.30787578 -0.17675957 0.17354658 -0.10473202 -0.21171801 -0.09594526 0.1211381 -0.26301682 -0.12624958 -0.22709832 0.20764399 0.03896945 0.2966081 0.14518227 0.09994563 0.15231888 -0.08877223 -0.030040167 -0.08120686 -0.043649666 0.033222817 0.028277561 0.06322364 0.072581 0.1320935 0.0052892743 0.18768093 0.2902318 0.042574592 0.029685332 -0.09316214 0.18394351 0.16256109 0.11761268 0.042911243 -0.25757605 0.18602414 0.1981248 0.01743556 -0.14092104 0.03815191 0.012181203 -0.3300712 -0.28989393 -0.31591326 0.17685364 -0.03954561 0.12807298 -0.059007395 0.17965916 0.36413205 -0.04911015 -0.1708252 -0.050026957 -0.07600442 -0.17878355 -0.19870992 0.0340572 -0.23798242 0.02231713 -0.05478327 -0.2412739 -0.019225936 -0.07605451 -0.16869055 0.46909067 0.1530251 -0.053521167 0.1676687 -0.1059917 -0.052922104 -0.15333143 0.12446019 -0.095783606 0.06259991 -0.05532081 0.01216738 0.1422521 -0.10553985 -0.00906169 -0.26089004 -0.036737952 0.15204833 -0.31494254 0.024801206 0.05288761 0.08251513 -0.078668386 0.30530068 -0.23586375 -0.022882361 0.018982936 0.004715106 -0.1711707 -0.0024034393 -0.0024051329 0.13218926 0.042395107 0.045828626 0.22154635 0.0031830245 0.20418815 -0.14944984 -0.13113773 -0.12319284 -0.22433457 0.20784824 -0.19482793 -0.019024348 0.09568452 -0.22993785
1534241837807140864 0.075280376 -0.059264798 0.17592427 0.22096914 0.061778706 -0.03068951 -0.062200803 0.045203444 -0.035265993 0.16642861 0.1892609 0.08196758 0.27776545 -0.36665753 0.09601714 -0.026020717 -0.26733726 0.25632846 -0.2202274 0.21064377 -0.0073671164 -0.24993403 -0.08350073 0.12821226 -0.29012424 -0.11068278 -0.13396475 0.22169346 0.05501978 0.2029196 0.11502767 0.13292691 0.12293097 -0.13092752 -0.06304356 -0.1678144 -0.09401286 0.07018004 0.045617167 0.038518064 -0.03553517 0.115059495 -0.038480725 0.11315314 0.2940027 -0.061267175 -0.013115177 -0.16525841 0.16802412 0.20526284 -0.006344692 0.035175323 -0.19782974 0.21779639 0.26671582 -0.14317395 -0.031806666 0.06756687 -0.01817798 -0.22748357 -0.2565211 -0.29644212 0.21843265 -0.20940581 0.17126863 0.035853975 0.22601907 0.23589341 -0.10764681 -0.0821294 -0.042997796 -0.082617864 -0.02162878 -0.014809297 0.10325732 -0.28046376 0.051669016 0.006967108 -0.1608076 0.0023209357 -0.1066493 -0.06299543 0.47264338 0.039175544 0.08320844 0.12019049 -0.06396879 -0.11566522 -0.1621909 0.12037088 -0.09438939 -0.051070448 -0.08257322 0.010828413 0.095468566 -0.12494666 0.124082 -0.21846525 -0.040471885 0.19287615 -0.35920757 0.1418385 0.064023465 0.023977095 -0.017761879 0.31593743 -0.20357156 -0.027794827 0.037040725 -0.0014442714 -0.23419192 0.0017507443 -0.0041974816 0.2673412 0.02599448 0.045794766 0.104320146 0.16751929 0.18380192 -0.18740173 -0.16449225 -0.076726 -0.055395 0.25486985 -0.112876125 -0.018894484 0.04107903 -0.27187565
1402179204426739712 0.08201462 -0.10564506 0.32281998 0.13762231 -0.050295446 -0.17144373 -0.06108569 0.2735748 -0.042732075 0.036109313 0.2374687 0.05302308 0.18796314 -0.24837047 0.0035109124 0.028107835 -0.25209093 0.22574787 -0.1758372 0.16643342 0.0031927605 -0.18474099 -0.07005077 0.08162764 -0.27739698 -0.15238537 -0.27208227 0.14655232 0.10452745 0.17520458 0.17383231 0.15836479 0.1843247 -0.17866674 0.012175305 -0.09479677 -0.22274269 0.05803576 0.040552083 -0.05241617 0.054972075 0.07101702 -0.07642894 0.13027968 0.31118932 -0.06716236 -0.11677045 -0.038677793 0.15925534 0.18032949 0.13911965 0.036218617 -0.18817686 0.054185037 0.20535716 -0.066986166 -0.08813424 -0.0007365253 0.12439521 -0.25884268 -0.28069544 -0.24124026 0.17321463 -0.013186077 0.07502022 0.006858752 0.30249497 0.15720437 -0.09475192 -0.18525079 -0.08596564 -0.071829654 -0.19014406 -0.13107032 0.10050627 -0.27648813 0.03551355 0.098217405 -0.09644636 0.023425696 -0.15646625 -0.13888739 0.47357732 0.07557796 -0.03108464 0.21089262 -0.079113305 -0.09477877 -0.123420104 0.079973355 -0.11711595 0.08513202 -0.031820014 -0.02857528 0.106559694 -0.27030072 0.07570303 -0.22223406 -0.03860655 0.09126363 -0.28583804 0.12956461 0.08817351 -0.004280966 -0.1508062 0.30774307 -0.32913396 0.06632721 -0.06235241 -0.02893601 -0.15190819 0.08996733 0.09723491 0.16760306 0.02994816 0.17895341 0.1620954 0.21424642 0.21900561 -0.13797697 -0.16566679 -0.08058913 -0.14460659 0.20081876 -0.20316523 -0.112028465 0.008204775 -0.20602334
1534223514734268416 0.016776795 -0.1234686 0.0236717 0.22902812 -0.06724636 -0.08551184 0.08758531 -0.31932187 -0.21842024 0.17740238 0.32901022 0.009043215 0.09839496 -0.018612238 -0.2567344 0.2903909 -0.4174352 0.09038056 -0.19698305 0.22215766 0.24385817 -0.3552553 0.09635698 0.030671852 -0.26150703 0.21540107 0.015493882 -0.078521386 0.049481086 0.035331905 -0.3717014 0.14173873 -0.06296042 -0.2520362 -0.008305841 0.099030845 -0.08897908 0.12987453 0.42287815 0.1715185 0.009407106 -0.17374557 -0.361067 0.18570878 0.13269755 0.090400524 0.0015541273 -0.15795177 -0.09150204 -0.08399743 -0.36878276 -0.22624251 0.12134356 -0.08883577 0.036700938 -0.0027370735 0.22897464 -0.087839074 -0.02286321 -0.08126334 -0.037249677 -0.018453555 -0.119606264 -0.011214971 0.24118418 -0.083481945 0.05784668 0.16129805 -0.018377077 -0.25793877 0.22820596 -0.13988894 -0.033750296 -0.15050815 0.14490342 -0.5353604 -0.116890885 0.110377096 -0.0029922174 0.11613909 -0.081713974 -0.277163 0.4804707 0.028599609 -0.008502001 -0.026229966 -0.20855145 -0.06756439 -0.0012584723 0.15768108 -0.04578767 -0.13114305 0.18660347 -0.014596714 0.06375715 0.1585319 0.098960765 -0.17472444 -0.027068123 0.030765079 -0.28269967 -0.19016214 -0.04442212 0.0068560145 -0.14016923 0.2587366 -0.072311655 -0.1371917 -0.31429446 -0.21075282 -0.16209096 -0.25543305 0.039041054 0.030661535 0.06408571 0.21558076 0.10424344 0.23810855 0.02130328 -0.40508205 -0.3415192 0.19697061 0.018838657 0.19021712 -0.3821832 -0.060135614 -0.078395225 -0.09087574
1558383746486161408 -0.11106257 0.07384453 0.49475634 0.070492715 0.087558635 -0.017466657 -0.17369139 -0.124020025 0.16884802 0.39501554 0.24227218 -0.0021081108 0.20415662 -0.27042657 -0.23795238 -0.15584986 0.19193467 -0.3163703 -0.06537399 0.03768804 0.038989022 -0.0053687906 -0.20601457 -0.04222319 -0.12064142 0.21074703 -0.28792363 -0.13815218 -0.140969 0.236181 0.0257865 0.30849147 0.069589004 0.32910925 -0.16195272 0.2549259 0.12387349 -0.08011203 0.25106663 0.053378038 -0.22357175 0.14001542 -0.1289209 -0.16529539 0.341668 0.04120468 -0.11580851 0.17845523 -0.21064788 0.037503008 -0.15818325 0.17260858 -0.034920577 0.039959416 -0.0284014 0.019167775 0.016990084 0.13469738 -0.010608507 -0.054951433 -0.09918079 -0.0018690313 -0.029251622 0.16569453 0.15682398 -0.4177613 0.018431736 0.2256235 0.23922414 0.04710628 -0.078002445 0.09907303 -0.19806689 -0.02676721 0.25493893 -0.24325022 0.372253 0.28674218 -0.12250263 0.35777345 0.039945114 0.14567477 0.009296502 0.28562778 0.17238322 0.07981218 0.29520833 0.1446621 0.19127946 0.0722081 -0.11070772 0.18553895 -0.03671141 -0.27557024 0.02689681 0.06684583 -0.2062182 -0.26829734 0.15779829 -0.06945085 -0.20175342 -0.04165098 0.2967641 0.06418146 0.29227522 -0.2575429 -0.09684198 -0.07044401 0.039303202 0.10198565 -0.090219416 -0.07743779 0.3347753 -0.0050522545 -0.13431855 -0.06395095 -0.024308857 0.1517022 0.06403531 -0.21694441 -0.13908236 0.13090879 0.17116776 -0.24892043 -0.1312684 0.12427569 -0.043389544 0.11004504
1558425541857304576 -0.04756509 -0.12893988 0.243428 0.21957695 0.21024594 0.0977264 -0.1955367 0.055272542 0.20637219 0.18182886 0.1901247 -0.035712186 0.17264235 -0.1922121 0.05458173 -0.13361467 0.24378714 -0.12385909 0.0045075295 0.05366167 0.018413063 -0.09296353 -0.17780502 -0.1779859 -0.14673905 0.02836219 -0.028624643 -0.3248063 0.083348565 0.060704038 -0.17706086 0.16728485 -0.09280053 0.43233338 -0.078475796 0.0819336 0.15014243 -0.032620806 0.35443974 -0.10137732 -0.29804355 0.2253093 0.015195598 -0.16990833 0.16583551 -0.0048129666 -0.035448737 0.018408732 -0.22333395 0.115754895 -0.095076285 0.26971972 0.14600621 0.025981378 -0.1526906 0.026559792 0.17911717 0.029955795 0.047093336 -0.08333815 0.02977095 0.12748794 0.015151351 0.054243695 0.37764373 -0.34795538 -0.008046945 0.12526736 0.060321975 0.2400988 0.03969834 0.24104452 -0.43147585 0.1202844 0.11795979 -0.054675262 0.20936547 0.32372892 -0.042321306 0.23296975 0.059805315 0.27252036 -0.10794437 0.2556318 -0.062355276 -0.00155288 0.41906896 -0.04924647 0.22501048 0.052580867 0.012068345 -0.023863124 0.068594135 -0.14516298 -0.0712357 -0.06588502 0.015286688 -0.26276672 0.23680249 -0.28425854 -0.09150967 -0.08049803 0.21240124 -0.0223164 0.049211364 -0.21681604 0.044345938 -0.31624907 0.047143817 0.31835228 -0.009409007 0.012352669 0.43495578 0.2190563 -0.1765705 -0.2024465 0.12642196 0.057276312 -0.052455556 -0.051691536 -0.029714385 0.13499933 0.10626657 -0.09406841 -0.05673886 0.07133087 0.09115683 -0.04510263
1558712413665931264 -0.07445321 -0.09904326 0.20673671 0.3001667 0.0486546 0.057534914 -0.29455945 0.035222117 0.2858013 0.19194911 0.2155246 -0.02625487 0.11603042 -0.1874727 0.10375542 -0.11938098 0.16867888 -0.052994397 -0.08653657 0.053640947 -0.002670017 -0.003049335 -0.027333178 -0.03844204 -0.19342256 0.05350777 -0.08040782 -0.24676102 -0.09310573 0.19858724 -0.14124116 0.20907111 -0.10592135 0.4365387 -0.02473831 0.006113102 0.17193832 -0.13418342 0.3487918 -0.069038466 -0.30736446 0.19916005 0.041359514 -0.18655023 0.31864762 0.010370079 0.07107906 0.15507649 -0.07722552 0.091853835 -0.013694297 0.29872975 0.13776697 0.054533426 -0.068940505 -0.004723429 0.13944545 -0.0148166865 0.012337488 -0.012386981 -0.085409895 0.17618275 -0.11270532 0.23215933 0.24543892 -0.42685395 -0.16733555 0.15252528 0.00990143 0.20247775 -0.063402295 0.20515679 -0.41019765 0.07780448 0.105781004 -0.017141374 0.26879272 0.24581045 -0.053733293 0.11212881 0.13587782 0.25671732 0.010889526 0.39092728 0.05520986 -0.061100453 0.4098759 0.011105375 0.13392375 0.08744674 0.03439506 0.06801685 -0.103226125 -0.14388432 0.050206717 -0.11928964 0.056815643 -0.20409624 0.15640834 -0.3630641 -0.03942274 -0.21124884 0.13067925 0.03913476 0.21222106 -0.22142974 0.10624122 -0.2557637 0.10942217 0.06925763 -0.04145582 0.039535414 0.58898807 0.13397373 -0.084124334 -0.1369153 0.094516374 0.04703647 -0.06195431 -0.16040362 -0.0008812097 0.1322972 0.1769224 -0.10379288 0.023144308 0.1320671 -0.010883525 -0.08727654
1345121249499545600 -0.071817316 0.108633354 0.033927135 -0.049642116 -0.2432736 -0.107173055 0.10525722 -0.20474951 -0.049964458 0.24185768 0.23078293 0.06811757 0.013925261 -0.1602228 0.118298285 0.3602009 -0.2551064 0.2155559 0.018566245 0.36128515 0.468907 -0.23994154 0.26400778 -0.06383269 0.17769638 0.15503182 -0.02294154 0.15090829 -0.05712459 0.14963232 -0.5943313 0.2690444 -0.059726946 -0.2661927 -0.023547923 -0.046932425 0.29790637 -0.16727896 0.0023613705 -0.055351403 0.1300964 0.03723528 -0.13177614 -0.029084656 0.031770755 0.2035051 0.019293595 -0.36181775 -0.09977309 -0.19407699 -0.016751556 -0.1642459 0.064268894 0.08323017 0.1979537 0.07078342 0.36503783 -0.42996854 0.022970436 0.0024903978 0.07732396 0.09815255 -0.09832922 -0.07246205 0.07068652 0.043944128 -0.16262758 0.052173764 0.11555829 -0.26200986 -0.09730466 -0.077228576 -0.43682152 -0.42241046 0.022723056 -0.06926876 0.14116646 0.19085057 0.08387002 -0.095254675 -0.26564872 -0.12068441 0.16803636 0.21348834 0.12381626 -0.23043488 -0.09034127 -0.23058233 0.32186997 0.19014922 -0.17468955 -0.20928437 -0.31000334 0.036547337 0.07425481 -0.15139908 0.3245656 -0.026424946 0.2714013 0.08888785 0.09694889 0.20916164 0.020561408 -0.039642464 -0.35654846 0.006251142 0.15963028 -0.58072823 -0.0034851036 -0.25796747 0.0069739423 -0.07732897 -0.20253122 0.19444725 -0.08269292 0.30743614 0.05610003 0.12975945 -0.21565881 -0.052586406 -0.3639148 0.08056689 -0.037052978 0.27969703 -0.09286863 -0.12440083 -0.24448211 -0.32646975
1558017881764847616 -0.06439903 -0.0934145 0.23268265 0.20671417 0.13364518 0.15065524 -0.27993307 0.07069615 0.2373868 0.2292317 0.2604571 -0.052384213 0.12554608 -0.26191905 0.11407771 -0.019112106 0.196625 -0.14609659 -0.018440573 0.05394111 -0.0044374717 -0.050603293 -0.110655695 -0.07226583 -0.096992016 -0.036959175 0.02979511 -0.38177088 -0.085819 0.15915972 -0.144717 0.113303356 -0.061909504 0.42247152 -0.09500511 -0.010023489 0.16691355 -0.07139119 0.3922997 0.0019218309 -0.2697161 0.2647552 0.0531955 -0.21289453 0.25905782 0.0465652 0.1121087 0.067711286 -0.33372647 0.09991234 0.026700346 0.3412423 0.08003024 0.062360495 -0.11756788 0.18522702 0.011408477 0.030053081 -0.0499613 -0.07432239 0.036849286 0.12685724 0.04939735 0.107604556 0.31934315 -0.37778905 -0.033427417 0.11782267 0.038872026 0.19260468 0.04847966 0.2036479 -0.26299438 0.059868775 0.14197461 -0.12044814 0.27296364 0.28561127 0.002918793 0.25508457 0.05338353 0.2869681 -0.21449146 0.31363988 -0.12820497 -0.044176325 0.43361473 0.00453222 0.22194198 -0.028054861 -0.009856078 0.020571012 0.027512494 -0.23813656 0.06426831 -0.13433461 -0.07621914 -0.24168535 0.16546048 -0.3655742 -0.039854288 -0.04546123 0.13448316 0.038640484 0.1069454 -0.1711152 -0.122292735 -0.22210242 -0.029120035 0.14703774 -0.056367513 0.08678139 0.4637737 0.1078511 -0.112350024 -0.095249064 0.09551659 -0.03505255 -0.038250957 -0.21476308 -0.07242052 0.17934114 0.111322604 -0.13257147 -0.099084914 0.13284664 0.08366274 -0.11813492
1558339960175378432 0.0003442409 0.002245183 0.25620475 0.29146752 0.23137029 0.010498859 -0.20216383 0.10872731 0.29320967 0.22417974 0.07124862 -0.06403632 0.19679353 -0.18004832 -0.030679613 -0.09759234 0.13610438 -0.16234037 -0.012497337 -0.020417424 -0.01591404 -0.057908796 -0.00508611 0.01090993 -0.0048789857 0.018593293 0.022527056 -0.41393277 0.0016534386 0.058178864 -0.25342223 0.14572532 0.016596045 0.51472294 -0.05334984 0.0028899908 0.06293305 -0.1556332 0.3207195 -0.028448226 -0.32099354 0.19884093 -0.031731766 -0.16139662 0.33833143 -0.04255628 0.00039669147 -0.011212093 -0.32018247 0.12769558 0.051472537 0.27379748 0.06651499 -0.027575208 -0.15163645 0.13850076 0.18104781 0.06010851 -0.03554346 0.09672065 -0.03255087 0.12952398 -0.07092277 0.1084428 0.15279381 -0.5044657 0.13087058 0.26366377 -0.026053464 0.13828835 0.05222179 0.22459911 -0.25131586 0.15217724 0.021773063 -0.107446715 0.22844696 0.27310047 -0.025236402 0.17167819 0.042570423 0.19816485 -0.038348194 0.28183895 -0.013972676 -0.05816269 0.49900734 -0.09324172 0.19793761 0.06789135 0.050524633 0.023031646 -0.0441885 -0.2353579 0.12623098 -0.19293208 0.051040627 -0.25379258 0.24794437 -0.40621287 -0.13796292 0.072688654 0.13220266 -0.022131365 0.16057129 -0.2709239 0.083247855 -0.18344797 0.12798586 0.069490165 -0.097518526 0.09776478 0.43586907 0.083069146 -0.19082944 -0.24234293 0.04298133 -0.018302934 -0.05174465 -0.15698166 0.10547715 0.07084667 0.09479933 -0.126528 -0.11076582 0.2851124 -0.009720339 0.012494516
1386604157436166144 0.023448952 -0.014463256 0.20595409 0.1765134 -0.09611608 -0.09769362 -0.22304536 0.18607926 -0.09938194 0.13237719 0.14078562 0.11758251 0.0027426088 -0.12988271 -0.19002992 0.057750218 -0.44643325 0.25169736 -0.14188491 0.16094078 -0.06276146 0.0024568138 -0.053610876 0.06529735 -0.15863696 0.144803 -0.13046269 0.20522913 -0.03810447 0.08176243 0.0017005637 0.04485329 -0.045491032 -0.18460524 -0.055623922 0.061266344 0.076869115 0.2824954 0.254328 0.039116103 0.023219867 0.101517685 -0.10966808 0.11655528 -0.20016219 0.12223318 -0.022228435 0.06673511 0.23443821 0.09905738 0.031359132 -0.123185284 -0.030271653 0.17769678 0.032500796 -0.068295754 -0.07864218 0.20275947 0.17076612 -0.01856494 -0.5038919 0.04554527 0.030674672 -0.15937962 0.19408119 -0.013016003 0.1751164 0.10877651 -0.1171342 -0.26614887 0.054045092 -0.2145431 -0.12734441 -0.1854803 0.028517606 -0.21642719 -0.003089076 0.21592323 -0.04062946 0.28848657 0.09638051 -0.26576728 0.1324122 0.0725479 0.14222133 0.11040312 -0.07242597 -0.05571073 -0.020765703 0.1385795 -0.16245177 0.06973354 0.044998024 -0.049155686 -0.24842393 0.07834705 -0.16095611 -0.07646009 -0.04471986 0.022019463 -0.41285563 0.20508756 0.11948618 -0.047437552 -0.09050277 0.20961624 0.13548112 -0.07390055 -0.08884945 -0.07295572 -0.24660507 0.020167444 0.027913775 0.13812463 0.2671529 -0.037708938 0.06276303 0.32287276 0.07722306 -0.32370672 -0.42485014 -0.04986317 0.04590381 0.050613258 -0.22026499 0.07164275 0.117218636 -0.07252561
1557998820418969600 -0.09814631 -0.15673809 0.30954483 0.16860174 0.15495531 0.21431024 -0.1577776 0.055567335 0.18921097 0.2989169 0.15263818 -0.0031287759 0.3132548 -0.20912936 0.075011075 -0.116239406 0.23459975 -0.23555663 0.015852403 -0.089391254 -0.02666296 0.023449881 -0.08604329 -0.033829972 -0.1797216 -0.029712766 0.00559906 -0.25645503 0.012242048 0.043557607 -0.21059087 0.1144199 -0.08617194 0.4087694 -0.036566976 0.049273133 0.09194819 -0.0022955693 0.29932708 -0.007990524 -0.19300522 0.18978177 -0.13569365 -0.2339441 0.35513481 0.009568254 -0.01896211 0.14103086 -0.28182328 0.17300302 0.12205754 0.1924382 0.12538387 0.11072045 -0.12521443 0.034862384 0.16470832 -0.013235854 0.010692248 -0.07436532 -0.06634949 -0.0046892506 -0.06015017 0.09955836 0.26403612 -0.44184503 -0.035322294 0.23687127 0.042189065 0.14810447 0.02673042 0.27139962 -0.37498903 0.13122989 0.111842066 -0.11168661 0.0968781 0.22705528 -0.03605362 0.23933111 0.14585648 0.1976217 -0.100601956 0.23478569 -0.18763322 0.07170358 0.48947045 -0.026600525 0.059409663 0.061486986 0.055785354 0.07191679 0.03448859 -0.1770413 0.0035200627 -0.14588115 -0.02765245 -0.18931721 0.194435 -0.34455803 -0.08155804 -0.0978467 0.1481975 -0.07807276 0.18981141 -0.19928336 -0.07376513 -0.22887418 0.19145879 0.2140436 -0.089625046 0.18559879 0.48605672 0.05448969 -0.11534498 -0.19076777 0.00821312 0.015336765 -0.09963582 -0.18887857 -0.04730954 0.11178334 0.08448618 -0.15991788 -0.06923602 0.08915351 -0.029003074 -0.13065875
1558430072456404992 -0.14250731 -0.12596236 0.3550023 0.21416315 0.086858526 0.15379159 -0.21647252 0.02623245 0.2644088 0.09498674 0.21947764 -0.13767083 0.26932323 -0.18747154 0.17650029 -0.032426044 0.14902106 -0.11543107 -0.033368986 -0.054465037 0.055138756 0.013655805 -0.1441504 -0.04606502 -0.15262951 -0.0153790545 -0.05985277 -0.3258662 -0.026523832 0.14214562 -0.27091435 0.1686531 -0.1478641 0.43768483 -0.0764473 0.030064896 0.20825115 -0.110440165 0.38876727 0.027731678 -0.2392243 0.17857811 0.032871578 -0.23917758 0.26745412 -0.04014531 -0.10837507 0.10616586 -0.23216087 0.112985514 -0.0691536 0.17665872 0.026693879 0.0005641392 -0.08281149 0.025157517 0.1224639 0.07849886 -0.0016157413 -0.020022646 -0.000782086 0.042856205 -0.05274483 0.15758269 0.31551063 -0.35981247 -0.030690774 0.21429797 0.044370934 0.2310035 -0.077648595 0.1705791 -0.33313185 0.15469155 0.15636964 -0.07456649 0.18613024 0.30450964 -0.10968931 0.08350249 0.017249607 0.2667631 -0.123987995 0.3778114 -0.025167128 -0.08631089 0.53005385 -0.09080453 0.11267189 0.06853482 0.010738674 0.060009766 0.009748497 -0.16455577 0.107875034 -0.0940282 0.018811977 -0.19797282 0.20065302 -0.3930551 -0.020376517 -0.09148054 0.25066635 -0.042258818 0.085144565 -0.20286478 0.03548393 -0.21669078 0.06492591 0.13985226 0.06577519 0.0034637812 0.4780582 0.034453616 -0.10097594 -0.20492697 0.08375049 0.012282669 0.032844234 -0.08707707 -0.043955483 0.08068622 0.08168947 -0.108878925 -0.043567203 0.084694095 -0.005080418 -0.10758736
1558021749747789824 -0.070345715 -0.12119768 0.25734144 0.3177832 0.11881919 0.21868667 -0.14635308 0.083189875 0.30958953 0.16048478 0.12147306 -0.16441308 0.18921886 -0.14878504 0.1425942 -0.14331204 0.27533606 -0.07881032 -0.040417083 0.086060435 -0.066082634 0.071346685 -0.03016857 -0.18265046 -0.23532717 0.058824755 -0.043589305 -0.19612414 -0.011719347 0.10646389 -0.10835265 0.229721 -0.2090319 0.3783333 0.014959735 -0.004402257 0.17443414 -0.0038231951 0.2865243 0.07825347 -0.26829472 0.20700577 0.11060705 -0.32395056 0.271704 0.059316576 -0.13415487 0.09932505 -0.15692897 0.08178902 -0.05335498 0.34705284 0.058453307 -0.07112037 -0.08017065 0.08774457 0.060602643 -0.0075248685 -0.113841586 0.10499217 0.07531826 0.06422212 0.049136132 0.06925035 0.34036273 -0.47050163 -0.0034566394 0.22143543 0.16126017 0.09037962 -0.057579365 0.23070653 -0.33788964 0.083001174 0.11102321 -0.0063808253 0.22435457 0.22418965 -0.12194331 0.06733829 0.1483983 0.16154659 -0.057558708 0.33888602 0.055722646 -0.0541924 0.38275236 -0.061926384 0.1702998 0.1982703 0.066771135 0.15915655 0.0002856294 -0.08357927 0.056286328 -0.09220452 -0.041137215 -0.3178549 0.11224685 -0.31765833 -0.032516804 -0.13802122 0.2013952 -0.08341185 0.27422926 -0.25739205 0.0005253918 -0.24262866 0.08471541 0.23594299 -0.053784017 -0.060109876 0.52449644 0.03751417 -0.15634349 -0.16248073 0.10315592 -0.044278666 -0.09828868 -0.20650761 -0.1389253 0.0022764427 0.07314883 -0.18833561 -0.025098143 0.056385968 -0.08020355 -0.11028703
1558422664678006784 -0.12915055 -0.21482888 0.31086755 0.2526747 -0.006938655 0.18885447 -0.20043604 -0.09014139 0.22306554 0.20843482 0.104586236 -0.17655551 0.2533844 -0.16908582 0.121475995 -0.06120822 0.1527598 -0.05005605 -0.124937996 0.13141076 -0.025309198 0.012525064 -0.11687568 -0.19323856 -0.08071227 0.030349161 0.06578941 -0.22414723 -0.04411297 0.01182866 -0.09350764 0.1613828 -0.15205942 0.41192296 -0.16844685 -0.057187676 0.20380609 -0.0027876259 0.31936795 -0.017845051 -0.38561183 0.21051253 -0.042217843 -0.22205143 0.3128358 -0.016418133 -0.1526324 0.064032294 -0.30861467 0.16130732 -0.020082818 0.2523992 0.09772405 0.009227524 -0.15243521 0.020803997 0.18428358 0.07556531 -0.062612064 -0.04006604 -0.04393083 0.112982415 0.049764782 0.037278526 0.25265446 -0.3659905 0.048132952 0.20129511 0.026552578 0.14658704 -0.021166572 0.41482335 -0.24143484 0.1218891 0.14729601 -0.026286056 0.23549622 0.2234884 -0.0015483479 0.23570076 0.06694479 0.23546962 0.02406366 0.27098367 -0.105786584 -0.09990513 0.38367274 0.05695201 0.24516869 0.12418737 0.025078647 0.0076690735 -0.06790907 -0.08148806 -0.08995916 -0.053836025 -0.036916133 -0.30340284 0.17064157 -0.43693176 -0.07735854 -0.02640184 0.22148672 0.01850539 0.25979522 -0.19329323 0.09604654 -0.19288005 0.047215115 0.15041652 -0.08385931 0.06864672 0.5342312 0.014408712 -0.11223185 -0.09805128 -0.007354261 0.04296262 0.0010210527 -0.019197118 -0.028338114 0.20290975 0.050548896 -0.13320139 0.075511575 0.13348709 -0.030130863 -0.03595453
1565163448201973760 0.03995822 -0.06963025 0.1993454 -0.15510987 -0.09679104 0.16637655 0.25892466 0.43534377 -0.14203903 0.2855231 -0.027750224 -0.17655681 -0.14979601 0.19715068 0.6430345 0.31450218 -0.3020587 -0.0022275026 0.09713763 0.07987007 0.21980873 0.05421913 -0.08933616 0.068796605 -0.23881607 0.2805701 0.33401424 0.002946997 0.124326885 0.0018846743 -0.03558665 0.09014924 -0.15928568 -0.19454473 -0.24153286 0.07981141 -0.038194314 0.11788153 0.24311934 0.018405342 0.32625747 0.19030067 -0.07013338 0.049850035 0.19617663 0.46580946 0.1348495 -0.08381821 0.20489188 0.37992522 0.020667657 0.16021815 -0.23202981 0.6139849 -0.5715464 -0.178568 0.114438094 0.17948294 -0.1738551 0.27532724 -0.045104142 0.3801194 0.39052528 0.059213948 0.12342607 -0.30902207 -0.07658381 -0.6510331 0.4109727 0.16353558 -0.2906846 0.093815744 -0.009848276 -0.25756523 0.34387243 -0.027513586 -0.08115915 0.027158156 -0.39954022 0.21785094 0.192308 0.015492817 -0.1169047 0.006046483 0.4142957 0.13694103 -0.13986093 -0.036772255 -0.3937856 -0.35166463 -0.16353762 0.28888467 0.18291539 0.42813298 0.24965368 -0.43332952 0.11099375 -0.36412218 0.2990001 -0.5311294 -0.18796751 -0.17766881 -0.10425572 0.08679544 0.09063207 0.12434415 -0.11259397 -0.106998354 0.027200595 0.068143755 -0.12356854 -0.4305348 0.32200876 -0.025566544 -0.16533425 0.11647986 -0.0029719821 -0.17469987 -0.069041684 -0.095206305 -0.2666959 0.20103523 -0.19292 0.020191744 -0.022569472 -0.18896201 -0.066184975 -0.22039434
1319979732403343360 -0.047810894 0.009144999 0.4179905 0.36344045 0.15573132 -0.14669178 -0.07258058 -0.20401949 0.09408039 -0.1559114 -0.72226 0.00851597 0.1078307 -0.4076715 0.34532842 0.5601811 0.047536436 0.15840831 -0.011667565 0.24181464 0.20317405 0.10077138 -0.26962852 0.21775955 -0.16913609 -0.120446995 0.43716422 -0.1048176 0.32730445 -0.10391126 -0.4593762 -0.505916 -0.4198414 -0.29316008 -0.19286299 0.686262 0.09228262 -0.3312681 -0.58347476 0.10431145 -0.0360719 -0.18858962 -0.018358372 0.20547557 0.17569797 0.46260574 0.46335223 0.09898609 0.3528574 -0.0155927045 0.34529477 -0.01908767 0.0010546759 0.24696952 0.06495208 0.0380371 0.2279917 0.3224548 -0.06167672 -0.22151043 0.078428775 0.005268236 0.2752296 0.08132187 0.35289878 -0.11435475 -0.18598452 0.09340419 -0.28922954 -0.0660569 0.16059399 -0.4036449 -0.2757304 0.13348773 0.378406 -0.11879253 0.33031222 0.054974623 0.3420169 0.089336544 0.18517172 0.07527464 0.077105686 -0.001993041 0.3540712 0.17001365 0.17143019 0.090758346 0.20747134 0.12062174 0.14176898 -0.06812171 -0.0049271057 -0.12357475 0.22048476 0.06983824 0.44255844 0.18896383 0.17957844 -0.16815938 0.28821883 0.3179851 0.086682804 -0.14830993 0.25414518 -0.28908566 -0.40857294 0.68063366 0.13880335 0.31623355 -0.21966091 -0.35675254 0.09344827 0.17277 -0.046136834 0.023504706 0.18402159 0.13775253 -0.25589007 -0.5198529 0.025193293 -0.016132358 -0.10550737 0.3980009 0.04003758 0.050604757 -0.09579222 0.018185372
1197711035060359168 -0.022834066 -0.096281774 0.13651101 0.26770255 -0.0045169475 -0.108450875 -0.105722286 0.19524792 -0.053537823 0.23957805 -0.116052195 -0.2794575 0.09102853 -0.07604593 0.006124588 0.012360557 -0.37968647 0.047281828 -0.2708794 0.30640694 0.30661532 0.09296907 0.07201496 0.20947023 0.25211796 -0.03729011 -0.12483538 -0.079200156 0.0020878841 0.2317682 -0.28331548 -0.20863052 -0.3250515 -0.42314723 0.15126075 0.12277183 -0.06277054 -0.1495354 0.27204278 -0.19614433 -0.21465828 -0.40143594 0.35265535 -0.25375473 0.2082765 -0.07653946 0.29808557 0.09033422 -0.017686501 0.30482677 -0.017099638 -0.29490674 -0.3477651 -0.11972605 0.0055396645 0.25616726 -0.28313857 0.13575436 -0.2363884 0.42911085 -0.091197655 0.16963032 -0.14637314 -0.48321232 0.31385952 0.07185447 0.042249713 -0.0045250515 0.5486428 -0.35083872 -0.25426003 0.09876625 0.21155873 0.57289416 0.482078 -0.25348172 -0.21337141 0.418668 -0.15741143 0.20956172 0.036003288 0.49711534 0.17205974 -0.0026063328 -0.19943467 -0.15959553 0.20103255 -0.36157563 -0.07979016 0.102109976 -0.06817156 0.14095196 -0.30431652 0.22277941 0.13825394 0.19885695 -0.42548016 -0.070531465 -0.025317738 -0.41751817 0.034063812 0.30302274 -0.063120596 0.0037425025 -0.2556142 0.07077813 -0.14075951 0.29637256 -0.52877986 0.66758096 0.35661334 0.43988085 0.07296701 -0.15221196 -0.14516695 0.24283822 0.06337743 -0.16313818 0.15920277 -0.32611588 -0.53663355 0.18420623 -0.5368769 -0.10380322 0.2563991 0.06953514 -0.12909822 -0.023631645
73 -0.0831875 -0.04950532 -0.008620171 0.34654933 0.07801614 -0.50732976 -0.12582588 -0.19238748 -0.2648441 0.051058672 0.27684543 0.106948316 -0.028574554 -0.45622516 0.015867027 0.09247152 -0.07304332 0.48839125 0.17770311 0.39572892 0.5203584 -0.49999014 0.051167056 0.13321264 0.40460882 0.15458862 -0.1483261 0.16603668 -0.030822841 0.23901533 -0.03445138 0.22412266 -0.17619519 -0.34198922 0.3891588 -0.0688541 0.23698138 0.14601149 -0.044075333 -0.09290581 0.315041 0.59868276 -0.34776244 -0.071627036 0.13434201 0.25926822 -0.004200181 -0.454253 0.028008409 0.013168769 0.38438532 -0.08733647 -0.07733648 0.24323337 0.3631782 0.16690134 0.47141942 -0.3541442 -0.17327927 0.502694 0.31300402 -0.09514923 -0.15151918 0.176477 0.049695108 -0.3031335 0.021399025 -0.009035501 0.079842724 -0.042063195 -0.15410149 -0.24088351 -0.30094478 -0.64056134 0.44805497 -0.110295124 0.008600884 0.2011657 0.009259729 0.051449645 -0.32809672 -0.23941621 -0.16849102 0.32073432 -0.04664198 -0.17208973 -0.22762467 -0.2641172 -0.0044942196 0.21430586 -0.1728773 -0.21826364 -0.4584899 -0.24495822 0.13409396 -0.2957741 0.16719529 -0.24099131 -0.14770725 -0.020241387 0.023280501 -0.0053123934 0.398325 -0.31674132 0.056455363 -0.05542122 -0.09295437 -0.07328152 -0.09462698 -0.087917194 -0.022026155 0.006335237 -0.4932374 -0.12064901 0.17938077 0.23947473 0.028969914 -0.061119463 -0.14082335 0.054812882 -0.08832258 -0.24191864 -0.29010087 0.51752234 -0.42144194 0.20095286 -0.40200257 -0.14109765
1195786972817682432 0.26768082 -0.08918154 0.3227864 0.03383385 0.13604137 -0.38918507 0.060146287 0.16327639 -0.100750096 -0.30844298 0.34033883 -0.13504496 -0.006573686 -0.38866094 0.15434882 0.17223367 -0.17378616 -0.11780399 -0.12168527 -0.18109985 -0.16359362 -0.033743627 -0.12823641 -0.041063666 -0.06387017 0.16579324 -0.07996149 0.21285811 0.14210114 0.07083363 -0.12192397 0.27954733 0.054569364 0.17295904 0.160809 -0.15560491 0.15049164 -0.119116485 0.013740826 -0.164218 0.107490435 0.025772862 0.03814148 -0.11141336 0.5556771 -0.13882315 0.11506733 -0.4413201 -0.30135155 0.17145525 0.46519923 0.005601584 0.08157628 0.15383992 0.122858115 -0.15145466 -0.0976679 0.031636443 -0.34751153 -0.12365828 0.12939069 -0.18963848 0.61189085 -0.01279838 -0.05982966 0.15996464 0.3002059 0.2138515 0.04862782 -0.14984037 0.03847808 0.2624348 -0.2964246 -0.0155517645 0.346992 -0.094113566 -0.13706996 -0.12184695 -0.025370736 -0.2558273 0.048446756 0.15753372 0.48389858 0.060929447 -0.093448654 0.5535287 0.07004023 -0.26096722 -0.011100808 0.08985159 0.0576543 -0.038293004 -0.048990373 0.16423082 0.02011408 0.040585212 -0.031761665 -0.34739336 0.2313811 -0.23384361 0.03909566 -0.26949766 -0.30607238 -0.16192798 -0.043969136 -0.17911583 -0.18498527 0.027561404 -0.040859073 0.19741212 0.25578225 0.04792071 0.17708597 0.0777042 0.1633885 0.09577225 0.011097085 0.03878191 0.19917841 0.17932631 0.20155327 -0.08637389 -0.20697762 0.4906306 -0.09300119 -0.39819923 0.2476217 -0.05506175
1372421146486362112 -0.12655418 -0.055709824 0.23201402 -0.03760893 0.019782487 -0.37923622 0.19393075 -0.46241152 -0.076609395 0.024362735 0.4316224 -0.09467178 -0.06594609 -0.30600712 0.029486835 0.15140457 -0.2706726 -0.32321903 -0.21382384 -0.3333115 0.19880377 0.15306748 0.17312369 -0.16411151 -0.1408243 0.101361975 0.22924317 0.12764037 0.24283002 -0.06195911 -0.5610587 0.26864728 -0.34061444 -0.13869464 0.32881993 -0.0119858505 0.32708606 0.025420457 0.54042304 0.2946761 0.25538796 0.057146862 0.1309097 0.14507116 0.15897095 0.26687187 0.36824006 0.05931494 -0.33746758 -0.0896564 0.0091436915 -0.10038196 -0.2833848 0.20239292 0.18194993 -0.23162214 0.38131613 -0.37167972 -0.28221232 -0.037961155 0.16797654 0.07711845 -0.20633644 -0.015743079 -0.031611003 -0.045911957 0.11177208 0.1203808 -0.040222477 -0.3448045 -0.032270785 0.10599557 -0.1794327 -0.1430287 -0.11819345 -0.48720044 -0.0011771343 -0.048010685 0.019573612 -0.24899466 0.18769357 -0.0017411422 0.42515394 -0.15969922 -0.2802621 -0.04452329 -0.115371116 -0.01993495 -0.14126039 -0.21541944 -0.41833606 -0.051830098 0.0808918 -0.17154793 0.26334992 0.21776752 0.19374347 -0.27045363 0.058016635 -0.13676164 0.07908788 -0.042199228 -0.1897394 -0.111099124 0.052830357 -0.21928719 -0.0639037 -0.21759872 -0.03235067 -0.19574675 0.1659255 -0.34446093 0.09944939 -0.11583332 0.019209675 0.11400554 -0.10912484 0.26003438 -0.080621175 0.16784033 0.1543535 -0.20095818 -0.068613775 0.14590852 -0.2610049 -0.2265065 -0.05297488 -0.03390647
1345920275132534784 0.09682101 0.1559282 0.19675924 0.07323015 0.23901048 0.20311306 -0.022824472 0.3402621 -0.16517012 0.081693396 0.14655603 0.284408 -0.22569406 0.10003848 0.074105166 0.27227253 -0.25369862 0.3509297 0.014355635 0.17486541 0.16148758 -0.08544483 0.2849345 0.20747475 -0.028722657 0.085944094 -0.4594255 -0.08243672 0.28669542 0.06119237 -0.051384795 -0.22158474 0.11006961 -0.012520107 0.1858377 0.15878056 0.22599019 -0.103443325 -0.03989688 0.086767726 -0.2138836 0.13151805 -0.19841893 -0.1097853 -0.15631355 0.21665184 0.03405337 0.19529878 0.03989729 0.07463513 -0.035171732 -0.280825 0.04794843 0.044282865 0.12370984 0.01955733 0.30714357 0.15340707 -0.031754114 0.04724137 -0.06635703 0.0067279367 0.029481286 -0.10585195 0.05496268 -0.008936695 0.1486225 -0.056117162 -0.3388791 -0.18970595 -0.10566212 0.3536428 -0.08832471 0.1314725 0.10259203 -0.29099488 0.11612999 0.0670502 -0.12870596 0.34123254 -0.036716398 -0.49434707 -0.07083299 0.040408425 -0.058982562 0.30147085 0.19294028 0.08967853 -0.23807578 0.24311142 0.087110065 0.19297406 -0.25000006 -0.0638745 -0.0804145 0.17230195 -0.15971768 -0.11983104 -0.17681642 0.32212508 -0.4120824 0.270653 -0.042828847 0.17035097 0.067099705 0.0690643 0.027074669 0.20082405 -0.28051344 -0.003388288 -0.0018584088 -0.23370892 0.18293647 0.24586134 0.12251342 0.22920978 0.16350478 0.175224 0.08869416 -0.24354436 -0.3979635 -0.35746464 0.12081923 -0.03199087 -0.06924607 -0.12567559 0.0067908037 -0.17788969
6235 0.070880905 -0.05282798 0.41554323 0.06322842 0.18815374 -0.15437089 -0.06799655 0.08910958 -0.24680722 0.08815951 0.1928018 0.13314335 -0.114792354 -0.010409231 -0.16341957 -0.105394736 -0.2487202 0.16678101 -0.20223224 0.27746922 -0.012462487 0.05731363 -0.06856259 0.13041168 -0.2966987 -0.023352418 -0.12382497 0.06564534 0.0050542597 0.055601783 -0.069514364 -0.0953024 -0.012319879 -0.17727496 0.045342326 -0.022756662 0.1717959 0.018295268 0.13397284 -0.014394576 -0.0004750097 0.06324317 -0.30508697 0.18655975 -0.08209203 0.07290492 -0.014760328 0.14139405 0.21153045 0.20262122 0.04993709 -0.10773338 -0.2001563 0.11180931 0.00294039 -0.12000147 0.028729701 -0.0021812795 -0.21853866 0.19082865 -0.30150607 0.045637675 0.061989304 -0.19846788 0.03102442 -0.05585297 -0.020604836 0.11346454 -0.15777345 -0.20120154 0.09692384 -0.09052546 0.04191095 -0.19162077 0.2064231 -0.08854083 0.13164568 -0.006896254 -0.008217386 0.20140378 0.14833145 -0.43853995 -0.015215594 0.13280718 0.084829934 0.047794953 0.083304256 -0.06399373 -0.07449422 0.09831712 -0.21265702 0.10201197 -0.12957257 0.091978274 -0.14928128 0.11314353 -0.15965575 -0.111048855 -0.0839814 0.0950003 -0.41577163 0.084808275 0.12891053 0.15447052 -0.0047491184 0.15769646 0.04254069 0.13757896 -0.110682584 0.08269067 -0.15664934 -0.00022562865 0.07423797 0.022754328 0.14063554 0.14153805 0.15428789 0.31620046 0.079652295 -0.26843274 -0.5027524 -0.040049594 0.13825896 -0.16904779 -0.321216 -0.010063671 0.09957846 -0.09222919
6890 -0.085987076 -0.036267456 0.051145066 0.15050213 -0.083191864 -0.17933121 0.11325165 0.14462604 -0.05125285 0.034860242 0.14966829 -0.041580886 0.23927656 -0.3610049 0.42565915 0.0807837 -0.34318492 0.42259568 0.03716963 0.095542595 -0.20012227 -0.23111938 -0.030439084 0.03231413 -0.037658256 -0.005856406 -0.0183711 0.32036278 0.19754916 0.19247326 -0.015751658 0.10256829 0.015500049 -0.09224547 0.060717486 -0.3028197 -0.033813722 -0.18575993 0.06405844 -0.11378165 0.07601158 0.17594083 0.19390978 -0.076222464 0.4424706 -0.024320334 -0.04949963 -0.18630767 0.18704468 0.015757184 0.14023753 0.05424175 -0.107499935 0.21995427 0.2878092 -0.016828472 -0.14805424 -0.09267128 -0.022657432 -0.25041696 -0.12187058 -0.23741147 0.19944987 -0.083615944 0.065797225 0.086435415 0.2324072 0.36261082 -0.1311504 0.023493411 -0.16466211 0.12923244 -0.16601694 -0.059871636 0.050286453 -0.20012888 -0.18571351 -0.032783803 -0.1213866 0.11766413 0.1016395 -0.20337209 0.38477954 0.3245209 0.13462281 0.3770016 -0.14308462 -0.14367087 0.05967462 0.19004287 -0.073318996 -0.12959103 0.015278798 -0.14197735 0.05159754 -0.2953521 0.1257376 -0.100711465 0.021292757 -0.09839069 -0.11208076 0.046103347 -0.22259293 0.086774416 -0.19611697 0.1896396 -0.20450923 -0.06514212 0.17132455 0.035685044 -0.11900553 0.22575305 0.11630947 0.17227875 0.004181689 0.005581226 0.22198884 -0.019449148 0.08555131 0.024661686 -0.113604784 -0.23232906 -0.1449028 0.24143521 -0.19471468 0.10849116 -0.04448808 -0.22525218
1558006924195971072 -0.044179056 -0.07867225 0.25208083 0.25071725 -0.02823058 0.17877237 -0.2791843 0.11134099 0.029087465 0.37820834 0.19813818 -0.15699193 0.2841418 -0.13577461 0.1825309 0.048541408 0.30545127 -0.015605295 -0.13456483 -0.007835295 0.0074562086 0.025250396 -0.07594061 -0.21155787 -0.03817046 0.03821842 0.0130601805 -0.21769994 0.072376974 0.19872373 -0.18815342 0.1952471 -0.102638975 0.37234777 -0.079625025 0.11419531 0.14289348 0.05062725 0.25725272 0.016562268 -0.34997982 0.071120754 -0.060296927 -0.110502616 0.34838158 -0.07672057 -0.047540933 0.1210586 -0.07967522 0.19473056 -0.022093153 0.24244395 0.1985366 0.04728696 -0.08845922 0.08348864 0.20993939 -0.07759849 -0.14192234 0.17277783 0.078981824 0.017249791 0.080748975 0.13239942 0.23489954 -0.52293736 0.100950494 0.11586646 0.13653162 0.18869497 0.012267116 0.15671442 -0.24170256 0.05953511 0.16032766 -0.055500064 0.18283314 0.43442 -0.0676507 0.066576526 0.10705345 0.24002673 0.077169634 0.19248445 0.07350981 -0.12825342 0.30345386 0.013023585 0.21439262 0.08964767 0.023441684 0.061819937 0.114115514 -0.2986497 0.11842493 -0.015987715 0.020450724 0.006358281 0.11263417 -0.20807758 0.10945333 -0.075801335 0.1874651 0.0058580316 0.21709609 -0.22374536 -0.058464713 -0.13677175 -0.027422266 0.2884285 0.042464677 0.095249444 0.6250619 0.18087341 -0.03983949 -0.039998382 0.004532909 -0.026581394 0.038629055 -0.1783064 0.02267382 0.03914842 0.21215989 -0.048312675 0.034774277 0.06738715 -0.04599905 -0.06909756
1386515816598470656 -0.09876396 -0.020540217 0.2873439 0.08063349 0.036019083 -0.121154085 0.052144967 -0.13685633 -0.0933028 0.15102367 0.17015737 0.21364883 -0.17817421 -0.32874927 -0.16423063 0.09960247 -0.16592132 0.20593403 -0.032068968 0.36855233 0.24942599 -0.08398099 0.095656626 0.13336642 -0.028975634 0.122580856 -0.36109987 0.14490561 -0.15193099 0.048905037 -0.12620556 0.053468335 0.009571295 -0.09896664 -0.006362371 -0.1080311 -0.021401122 -0.13402505 -0.18164615 0.012347801 0.036428403 0.28772545 -0.12520547 0.07668711 0.008409648 0.09448916 -0.28648472 -0.055763505 0.20229347 0.18567783 0.10355929 0.002760573 -0.22735663 -0.074715175 0.17188987 0.07181048 0.2667088 -0.022117065 -0.21355778 0.30988127 -0.22582431 -0.09851314 -0.03262301 0.029800365 0.15228656 -0.2361641 0.03881933 0.045950692 0.17224325 -0.10034359 -0.06912204 -0.2548148 -0.0940939 -0.45940107 0.32757348 -0.06599348 0.26819497 -0.05886883 -0.32352328 -0.0043365783 -0.007978655 -0.37292197 0.08623146 0.12611984 0.022292217 -0.014668083 -0.06820434 -0.07147887 -0.13284726 0.07857981 -0.14842395 -0.23798627 -0.36968958 -0.15090321 -0.07278716 -0.0030317458 -0.021055484 -0.1551507 -0.011260347 -0.017091481 -0.21135949 0.20802322 0.20786686 0.025738861 0.15592943 0.07429232 0.08783611 -0.12352195 0.0054193614 -0.006003543 0.035855353 -0.1283862 -0.3623302 0.113624796 0.026295118 0.17048608 0.13570979 0.28436258 -0.177208 -0.30623424 -0.18859994 -0.2041197 0.020768743 0.14725211 -0.31575257 0.2258326 -0.12740986 -0.08378511
1497810713643716608 0.057972204 -0.0280533 0.1908804 0.110568546 -0.07150306 -0.08766441 0.17326394 -0.23145346 -0.19202423 0.016776757 0.41402987 -0.012565406 -0.046676643 -0.08680158 -0.5928106 0.18288173 -0.02639748 -0.15789454 -0.08390226 0.13410169 0.21814804 -0.09708033 0.13438047 -0.012474037 -0.16832663 0.076105595 -0.02177435 0.06082526 -0.20126249 -0.031585317 -0.46223918 0.076879345 -0.117532246 -0.107256815 0.062020537 0.12655327 0.06361977 0.055508476 0.34624287 0.27041903 0.0046249535 0.0010416721 -0.36161917 0.1998592 0.07883087 0.08756588 0.18280321 -0.26614308 -0.17081824 -0.11343346 -0.050716892 -0.23442107 -0.03672428 0.0854222 -0.18343402 -0.037202664 0.28077072 -0.32264018 -0.28788197 -0.01300149 0.19450915 0.11111625 -0.057867058 0.08367076 0.15142052 -0.16337806 -0.16384402 0.044360347 0.13934349 0.013922187 -0.056987144 -0.05858039 -0.057428673 -0.13634649 0.06709148 -0.6432144 0.05036396 0.12394714 -0.07580964 0.21686116 -0.15435086 0.020147756 0.2746966 -0.13775547 -0.11364159 0.011824933 -0.20537688 0.056591894 -0.054245863 -0.006234692 -0.10253505 -0.09173415 -0.045485422 -0.06599437 0.1927675 0.27285805 -0.013714942 -0.27125153 -0.059259273 0.13431858 -0.23109257 -0.07197372 0.091635644 -0.18282478 -0.012736466 0.17018223 -0.2567751 -0.10916744 -0.3914757 -0.033995412 -0.1365203 -0.5364614 -0.011064253 0.0073238676 0.06883269 0.40969315 -0.00610103 0.24570939 0.045246188 -0.060859624 -0.08352978 0.2978729 0.09354711 0.11020198 -0.4344194 -0.035744824 -0.028326845 0.02511528
1081671753865568256 0.1525542 -0.050444994 0.11597902 -0.011861198 -0.04223415 -0.5132891 0.08299388 -0.09238348 -0.00023264329 -0.0026187745 0.12859017 0.16352232 0.17989957 -0.29029468 0.3454307 0.5044533 -0.38316783 0.028786965 -0.2239727 -0.1482267 -0.042015035 -0.17206404 0.124740615 -0.33741742 -0.042650655 0.4135762 -0.36082372 0.10103942 0.19374147 0.11806717 -0.2905757 0.00037263837 -0.09570627 -0.122273386 0.09636199 -0.0035913265 0.17968431 0.100562185 0.1492327 -0.2777601 0.05566124 -0.0636095 0.17642243 0.12615043 0.082143776 -0.024602832 0.08097301 -0.10830703 -0.36947876 0.21883579 0.30787754 -0.015179734 0.10592593 0.07917895 0.00081905327 -0.09048387 0.014582105 0.061681785 0.05715156 -0.0031774389 -0.06006787 0.01577508 -0.05313281 -0.12268208 -0.093531966 0.050233 0.21306732 0.17515603 0.033394158 -0.49754873 0.18083465 -0.113754876 -0.21516298 -0.25738126 -0.12436149 -0.16663507 -0.23025045 -0.3459204 0.20719846 -0.2131713 0.18740381 0.059842803 0.2979654 0.18116423 0.03903184 0.29429483 0.09408757 -0.27099702 0.0714046 -0.078667976 0.02525863 0.30760658 0.19908692 0.013367154 -0.22531812 0.12952527 -0.04783479 -0.264259 0.12099143 -0.1814411 -0.103382215 -0.0944913 -0.170459 0.23063207 0.074050345 -0.17061116 0.07923872 -0.2835974 -0.1633604 -0.11895372 0.25851387 -0.037373565 -0.019824613 0.3139753 -0.017928913 -0.05147048 0.05045048 0.12053404 0.0755928 -0.19106345 -0.15032867 -0.21106426 -0.36341158 0.43154597 -0.067055434 -0.20696715 0.056895502 -0.16985278
1553723853589643264 0.06798071 -0.14078394 0.274064 0.26223865 0.16706651 -0.06276238 -0.11216733 0.13618572 0.03988544 -0.031937458 0.18815996 -0.15273602 0.2531508 -0.20472015 -0.1703813 -0.11326806 -0.051410142 -0.010787814 -0.30655533 0.091834515 -0.00018680691 -0.13959205 -0.118027896 0.10669544 -0.18160523 -0.028768178 -0.3041411 0.1783826 0.018563453 0.21562044 0.1814165 0.1018078 0.010373338 0.029720731 0.027743883 -0.03666682 -0.03164801 -0.18190381 -0.08805282 0.015211757 0.05260416 0.07642067 0.013186473 0.096369706 0.41771814 -0.087370925 -0.04342038 -0.2864218 0.1810982 0.108174376 0.17780799 -0.00247441 -0.3166092 0.29840523 0.0540698 -0.15427789 -0.18334025 -0.106397495 0.02048323 -0.11352067 -0.197465 -0.28270257 0.31139168 0.047353715 0.0106655145 -0.03905219 0.056275386 0.29407266 -0.023401309 0.089475915 -0.10094219 0.02047036 -0.21207231 -0.057318453 0.32092386 -0.22339211 0.091422714 0.13349928 -0.22801894 0.12432193 -0.13338703 -0.023567248 0.3552644 -0.09441931 -0.05500527 0.32870546 -0.004419648 0.083827764 -0.17839822 0.06836384 -0.103894755 -0.056463744 -0.24427836 0.09764561 0.0077156345 -0.099667124 -0.02819859 -0.22097096 -0.052632913 0.18532892 -0.23379602 0.0312725 0.05095837 -0.10135137 -0.083303325 0.086692594 -0.37193257 0.15011626 0.027743453 0.11512741 -0.14071485 -0.12581135 0.09292603 0.18901078 0.16166095 0.23593642 0.11934888 0.07120258 0.14616624 -0.03448453 0.11612498 -0.12702069 0.019737873 0.19340953 -0.12727036 -0.14476344 0.18131256 -0.032472175
1567434348205117440 -0.054984514 0.24263 0.2939619 0.11447954 -0.19828512 -0.16191413 0.0645641 0.10857889 -0.055648178 0.37363845 0.17214322 0.2640732 0.13868691 -0.35702828 -0.13297513 0.14026631 -0.25108847 0.22238651 -0.06678044 0.30796623 -0.0652039 -0.13970165 0.015134513 0.057065375 -0.16405031 0.074198194 -0.09053617 0.012078123 -0.09926484 0.1478995 -0.044112064 -0.00113279 -0.0034542633 -0.17318082 0.01646811 0.0016534877 -0.07645643 0.1154046 0.10528941 0.018596003 0.0022509117 0.0645088 -0.11778182 0.18521759 0.06294777 0.016155196 -0.11339607 0.1537004 0.07254372 0.07280411 -0.015170313 -0.094676286 -0.1091773 -0.016050117 0.0538819 0.042593744 -0.049401738 0.0005247439 0.1122721 -0.068343475 -0.3139925 0.014397788 -0.11769455 -0.16932893 0.17182036 -0.1878526 0.023267955 0.1645405 -0.052337904 -0.25423175 0.032208804 -0.08923409 -0.06347413 -0.2559571 0.17627189 -0.4010062 0.03604694 -0.0824249 -0.2244926 -0.05072114 -0.06741738 -0.07709794 0.27951738 0.2320464 0.07864697 0.1542805 0.015661228 -0.050116636 -0.12503996 -0.009989849 0.06448066 0.04669551 0.10835464 -0.03509247 -0.104732126 0.10532105 -0.039519586 -0.12259394 -0.005913595 0.1968807 -0.41924772 0.14976434 0.10644581 -0.0041623376 -0.09670694 0.23663612 0.02862523 -0.16720389 -0.14638889 -0.18714541 -0.2652482 -0.2663328 -0.06553875 0.13781655 -0.046263747 0.03154598 0.074198835 0.11544056 -0.06786974 -0.2630776 -0.33316907 0.0141800195 -0.035591505 0.07058449 -0.09663395 0.10865761 -0.124514654 -0.17093748
1197681015453552640 -0.31382963 0.08765107 0.3476742 0.5133664 0.027575769 -0.19705892 -0.007586762 -0.18380849 -0.22670493 0.55278623 -0.12997119 0.022403996 0.1019669 -0.35929495 0.13630897 -0.08925605 -0.31415972 -0.4445592 0.22355159 0.23993157 0.25256258 -0.22767295 0.00096622825 -0.08055219 0.28074843 -0.21917515 -0.0296668 -0.04103771 0.24403982 0.22490495 -0.27945775 -0.19857283 -0.44640127 -0.4143556 0.34981018 -0.16291071 -0.15809913 -0.009501815 0.20213288 0.16169961 -0.20036201 0.03561273 0.1671071 -0.36079833 0.08312814 -0.2313466 0.2697452 -0.1442394 -0.048863333 0.42770603 0.46526116 -0.21325445 -0.23276609 -0.43661976 -0.43699467 -0.15576133 -0.31057054 0.1721783 -0.121353544 0.35456198 -0.0733479 0.40188107 -0.20497502 -0.18666053 0.28910375 -0.062449664 0.025501123 0.060858227 0.5219806 -0.397427 -0.5381032 0.20193455 0.14424445 0.24049497 0.38462076 -0.42004433 -0.008097738 0.4347487 0.34698454 0.021310393 0.26651135 0.28064892 0.2702447 0.15384832 -0.15218015 -0.23086287 -0.03668334 0.019738417 -0.14340945 0.26493275 0.17051297 0.10657489 -0.7189901 0.120105326 0.40367007 0.20230879 -0.23379639 0.33634296 0.14672647 -0.31869304 0.06712058 0.12151288 -0.17713895 0.08200239 -0.27544153 0.24098514 0.0778187 0.102937765 -0.53472996 0.2877082 -0.17943625 0.15318774 0.23752627 0.031222148 -0.100975156 -0.0846762 0.21251582 -0.19200197 0.35915 0.010950106 -0.10578862 0.09242674 -0.20917557 0.0009989167 0.11777876 0.028663218 -0.057983566 -0.019906752
1367296192052203520 -0.2682239 -0.22433215 -0.06387517 0.15618438 -0.12958896 -0.09257219 0.074946195 -0.07904805 -0.06168067 -0.057503756 0.028963441 0.07220893 0.40142998 -0.26161483 0.25217906 0.20454946 -0.28121123 0.16619812 0.48148403 0.2642687 0.60470945 -0.44899443 0.08184995 -0.048709683 -0.22553976 0.14481042 -0.019391553 -0.17639044 0.21994245 0.22432594 -0.107356444 -0.26453048 -0.2145851 -0.14591311 0.2254476 -0.115663946 -0.093052395 -0.119290665 0.45830098 -0.59369916 0.0885194 0.23619242 0.26910895 -0.023302317 0.09166821 0.38556373 -0.13898176 -0.32741433 -0.08526197 0.47583926 -0.2358333 0.059516728 -0.037116252 0.17265381 -0.07293116 -0.165722 -0.07552325 0.16236436 -0.37762097 0.23763642 -0.30135778 0.12926832 -0.18700647 -0.17251022 0.15791349 -0.35184243 -0.20881435 0.13686755 -0.23479968 -0.102178 -0.064280674 0.3000764 -0.122058064 -0.047486305 0.18431668 -0.11366185 0.0604301 -0.21924141 0.11334554 0.27391267 -0.16702038 0.12280793 -0.05281811 0.21715257 0.10077911 0.29927796 -0.020905066 0.5432987 -0.22720833 -0.27030653 -0.30619606 0.39059135 0.018072415 0.16456614 0.30785504 0.23976673 0.36009985 0.02056541 0.117683925 -0.28690624 -0.17925893 0.1138541 0.29538378 -0.22282949 -0.4706689 -0.09507888 0.06275028 0.2541309 0.10285955 -0.20808244 0.36563417 -0.48821878 0.25383115 0.2670653 -0.19763795 0.09923927 -0.043489464 -0.00961149 -0.13717052 0.6135299 0.14143936 0.41259974 0.44328147 -0.13365796 -0.20420542 0.020561771 0.5173849 -0.036443952
1059614886211121152 0.11945532 -0.13495058 -0.11360311 -0.09122489 -0.049611658 -0.21596631 0.10032233 -0.46513444 -0.1963251 -0.06742232 0.31321347 -0.0490483 -0.2019138 -0.291538 -0.01771669 0.2856163 -0.1208301 0.020837016 -0.19122653 0.34172148 0.5268566 -0.3188061 0.11022041 0.08512288 0.0689613 0.15732223 0.026216099 0.06526098 0.16021176 -0.098062 -0.62284833 0.15972434 -0.17555004 -0.23026858 -0.012486229 -0.03147136 -0.0017151189 -0.0134544885 0.19020347 0.17201038 0.09606685 0.052341275 -0.21371008 -0.0714584 -0.052863903 0.15383574 0.04745756 -0.2580583 -0.114829265 0.0780027 -0.08756886 0.035443697 0.12027951 0.047721595 -0.011763259 0.03201621 0.3528847 -0.46743482 -0.5218257 0.34407493 0.1259438 -0.054340724 -0.0539553 0.08007876 0.12104399 0.0029064503 0.029087624 -0.1311066 0.28966236 -0.0923169 -0.098900855 0.12127973 -0.3131729 -0.4020031 0.08469235 -0.31336403 -0.061941717 0.105832994 0.067319386 0.098745614 -0.19542333 -0.34416848 0.15000449 0.10192887 -0.030256517 -0.27288932 -0.042873446 -0.10410886 0.119508035 0.3671951 -0.18268906 -0.39028054 -0.049150378 -0.2483829 -0.029883323 0.13082589 0.3225257 -0.35205856 0.055333406 -0.11817412 -0.025246976 -0.13902673 -0.018827517 0.107170485 -0.04022824 -0.11726753 -0.0025533545 -0.07164194 -0.08621866 -0.15826315 0.21300371 -0.21071462 -0.19786832 -0.10513308 0.042892914 0.24513154 0.1506192 0.26660565 -0.16752818 -0.02527455 -0.19634259 -0.025580373 -0.19464768 0.21285379 -0.26007828 0.10692044 -0.31177872 -0.18838023
1406199823019196416 0.34527317 0.37655717 0.32182714 -0.14139974 -0.27577263 -0.21606086 -0.41235116 -0.41863367 0.11286724 0.03965272 -0.09084429 0.13463645 -0.046462756 -0.51670575 -0.24354403 0.23932754 -0.2697309 0.03559332 0.14803892 -0.20336096 0.23338994 0.24544252 0.08798069 0.02233752 0.3414104 -0.29138514 -0.13594946 0.12579575 0.24473727 0.11204302 0.018695928 -0.1562118 -0.16139951 0.24890865 -0.20474535 0.054979432 0.048384547 -0.12422742 -0.07011855 -0.0015832601 0.04943818 0.03317389 0.46723807 0.09240312 0.3965748 -0.12682259 0.095186226 0.110415705 -0.3583793 -0.08360724 0.34546006 -0.15373388 0.04517231 0.07887886 -0.09673984 0.14484407 -0.042332824 0.042806584 -0.31677884 0.22089921 -0.06168196 0.3443529 -0.30196556 -0.20331708 0.028542707 -0.60446924 0.18662393 0.22539723 -0.1896913 0.22280775 0.109190986 0.30784824 -0.3631491 0.053120714 0.18761446 -0.52977943 0.11129702 0.25802684 0.15011172 -0.42774782 0.02788942 0.057174765 0.064374216 0.1189288 0.21770309 -0.11463786 -0.094978124 0.4354713 -0.50265026 -0.02732698 -0.022792798 -0.20255105 0.044469826 0.33735317 0.14795828 -0.15252651 0.32350972 -0.20009682 -0.3026061 0.0137331495 -0.20928456 -0.25944284 -0.10364153 -0.16749197 -0.2782949 -0.0024633002 0.23815711 -0.054595333 0.23730697 0.4724641 -0.06383656 0.05465761 0.17845519 -0.039854936 0.24542224 0.4082016 0.080838785 -0.022924853 0.07778908 -0.25091586 -0.09081945 0.17071608 0.09300465 -0.21564177 -0.15710156 -0.2757565 -0.20591642 -0.486391
